228 64
1930 -0.084702 0.485550 -0.182374 0.062211 0.135909 0.633569 0.500533 -0.017613 -0.183604 -0.294588 0.429860 0.545815 -0.130283 -0.786942 0.152779 -0.227316 0.638185 0.750755 -0.874211 0.639405 0.380146 -0.267136 -0.591329 0.089385 0.373659 -0.694049 0.646429 -0.515252 -0.458937 -1.174974 0.203862 0.285819 0.146137 -0.411182 0.064405 0.260397 0.076953 -0.456221 -0.054776 0.039741 0.060643 -0.240934 0.123660 -0.888829 0.834006 -0.022296 -0.258497 -0.413221 0.045288 -0.613487 -0.552695 -0.226317 0.442764 0.010249 0.648588 -0.009761 -0.048698 -0.551056 -0.252552 0.388954 -0.503131 0.514825 -0.238101 -0.312937
3610 -0.887506 0.579511 -0.132886 0.302821 0.019343 0.773362 -0.340124 -0.143636 0.080612 -0.231624 0.154857 0.218768 -0.546153 0.500193 -0.289944 0.363574 1.206561 -0.225768 -0.894031 -0.146416 -0.605953 -0.357594 -0.287872 -0.229712 -0.678040 -0.204077 -0.188432 0.439890 -0.646104 -0.438706 0.113727 0.108103 -0.227892 -0.290008 0.512023 0.491100 0.216423 -0.332030 -0.147272 -0.293398 -0.000698 -0.132437 0.266297 0.000304 0.739643 -0.620951 0.760677 -0.889627 -0.388769 -0.664249 -0.262277 0.534824 0.996440 0.885027 0.348620 0.348875 0.692587 -0.538382 0.111657 0.461337 -0.047493 0.709494 -0.915276 -0.350234
7804 -1.084493 0.803963 -0.220383 -0.107986 -0.242825 0.820770 -0.257546 -0.377175 0.169751 0.356684 0.837723 0.572983 -0.535862 0.620254 -0.439356 0.442954 0.904794 -0.370743 -0.368248 -0.404303 -0.859432 -0.441864 -0.570708 0.085691 0.462878 0.267899 -0.040783 0.062066 -0.304915 -0.074678 0.295628 -0.342549 -0.273804 0.219950 0.065164 0.171218 -0.160910 -0.355950 -0.066507 -0.715439 0.661312 -0.707830 0.291878 -0.586688 0.028626 -0.551220 0.648720 -0.722924 -0.749434 -1.042714 -0.472678 0.618743 0.017580 0.153390 -0.004113 0.214973 0.134226 -0.428165 0.253766 0.013072 -0.269179 -0.094399 -0.838617 -0.578033
976 -1.116689 0.122160 -0.239441 0.075918 0.574022 0.259054 0.268518 0.300167 0.220182 -0.583343 0.503074 -0.442470 -0.369644 -0.236352 -0.303947 -0.617015 0.734534 0.083144 -0.299746 0.270311 -0.248667 -0.711099 -0.577590 -0.186094 -0.487106 -0.423293 0.243887 -0.543727 -0.721509 -0.216184 0.532344 0.152555 -0.030131 -0.349168 -0.328180 -0.177431 0.820632 -0.488687 0.264897 -0.143191 -0.277984 0.071907 0.122192 -0.340438 1.413848 0.221503 0.915782 -0.966426 -0.180053 0.288665 0.080532 -0.380970 0.088643 -0.291591 0.317501 1.015421 0.901932 -0.684429 0.578067 0.172291 -0.725367 -0.280504 -0.461755 -0.331637
4117 -0.151609 0.560616 0.495836 -0.494818 0.078252 0.010987 0.376022 -0.424804 -0.703543 0.128951 0.872066 1.197644 -0.290123 0.228152 -0.214407 0.934757 0.691578 0.749733 -1.174996 -0.308431 -0.428752 -0.399767 -0.794619 0.247895 0.486813 -0.644929 -0.087428 -0.321374 -0.219003 0.042874 0.707619 0.073820 0.482498 -0.558952 0.149598 0.386472 0.105931 -0.023309 0.389302 0.945035 0.691832 0.258617 0.035101 -0.650550 -0.008798 0.423808 -0.549712 -0.711297 -0.051985 -1.083945 -0.523595 -0.142900 -0.337117 0.091061 0.231984 -0.311902 0.236084 -0.914714 -0.155316 0.032621 0.329442 0.197747 -0.518202 0.138384
30236 -0.818193 0.359856 0.176258 -0.328163 -0.368543 0.246893 0.148029 -0.778562 -0.122477 0.540382 1.224948 0.485468 -0.314403 0.699902 -0.477019 0.350127 0.729953 -0.211308 -0.156827 -0.648665 -0.735325 -0.263150 -0.864130 0.321003 1.070600 0.031446 -0.075239 -0.605922 -0.042224 0.171866 0.729284 -0.391249 0.096247 -0.087860 -0.383517 -0.034947 -0.374588 0.014495 -0.102948 0.083688 1.040531 -0.612054 -0.267155 -0.785471 -0.095671 0.133286 -0.130578 -0.714579 -0.571486 -1.177820 -0.264618 0.279837 -0.457959 -0.333343 -0.140710 -0.478092 0.196643 -0.453575 0.131049 -0.327557 -0.014166 -0.319881 -0.436306 -0.136666
4142 -0.200896 0.564687 0.377781 -0.470296 0.006946 -0.033579 0.346674 -0.495324 -0.680755 0.144332 0.981159 1.143566 -0.339854 0.252636 -0.281738 0.938961 0.709234 0.723157 -1.072890 -0.356381 -0.435193 -0.378960 -0.759521 0.343035 0.482033 -0.624842 -0.099077 -0.311976 -0.154179 0.072048 0.669562 0.064418 0.497736 -0.608752 0.129133 0.423301 0.066948 0.084712 0.424897 0.995492 0.811127 0.320926 0.033808 -0.695719 -0.092135 0.443684 -0.496227 -0.682493 0.030010 -1.072416 -0.526063 -0.136093 -0.313572 0.110328 0.168562 -0.262570 0.176131 -0.905139 -0.107621 0.034050 0.325315 0.123947 -0.530440 0.220843
16433 0.098611 0.063105 0.848237 -0.338858 0.596798 0.131148 0.237537 -0.312640 -0.189351 0.034622 0.073348 0.190689 -0.804965 -0.290699 -0.574451 0.282950 0.535284 0.963073 -1.480732 0.099074 -0.091465 -0.314373 -0.117479 0.264932 0.006564 -0.305510 0.246975 -0.803454 -0.293591 0.482424 0.442324 0.391276 0.132390 -1.191014 0.367410 0.299313 -0.288561 0.491328 0.426913 0.452764 0.414812 -0.086152 0.281440 -0.290686 -0.124793 0.056281 -0.354031 -0.695553 0.133010 -0.420407 0.255836 -0.618816 -0.284570 0.306795 0.042946 -0.365755 0.582082 -0.964518 -0.551552 -0.418764 0.472775 -0.165412 -0.627769 0.523633
19025 -0.160291 -0.065072 0.824364 0.043851 -0.021166 0.265516 0.038793 -0.737395 -0.090191 0.743671 0.293168 0.286970 -0.025871 1.202458 -0.299951 1.188808 0.904981 -0.320623 -0.522329 -0.466554 -1.106428 -0.030796 -0.411534 -0.211457 0.437831 0.496931 -0.508872 -0.105658 -0.244644 0.588336 0.749561 -0.387992 -0.345904 -0.214700 0.151342 -0.006274 -0.021593 -0.149341 0.060850 0.006023 0.507092 -0.241134 -0.208104 0.089600 -0.071782 -0.265499 -0.233685 -0.456663 -0.514940 -0.491709 -0.052442 0.490136 -0.312860 0.704651 -0.617181 -0.744176 0.737648 -0.113969 -0.240965 -0.080423 0.352376 0.374180 -0.593334 0.224878
628 -0.031960 -0.507334 0.295077 0.051474 -0.308913 0.276304 0.527163 -0.026310 -0.159727 0.727998 0.209702 0.542663 0.886772 0.838752 0.255882 0.621682 -0.091828 0.244909 0.204888 -0.283935 -0.369625 0.086403 -0.574371 -0.571245 1.073524 0.257939 0.068732 -0.450334 0.041350 -0.131849 0.903169 -0.609725 -0.006710 0.465090 -0.581998 -0.837174 0.369570 -0.551111 0.564219 -0.102068 0.010097 0.106599 -0.676425 0.365347 0.692133 0.232904 -0.178879 -0.174630 -0.804236 -0.037203 0.028457 0.333645 -0.624560 -0.575344 -0.394824 -0.865500 0.134132 0.297555 -0.061673 0.004833 -0.002598 0.110282 0.040944 0.042765
2687 -0.590216 0.713497 -0.076792 -0.217413 0.447039 0.556912 0.480422 0.023781 0.119156 -0.043561 0.600408 0.690214 -0.305163 -0.425901 -0.636076 0.077571 0.704050 0.891774 -0.700325 0.228433 -0.291947 -0.332134 -0.754080 0.602174 0.973961 -0.064561 0.718925 -0.570450 -0.151450 -0.059434 0.434207 0.087758 0.309679 -0.064053 -0.318560 0.070702 -0.049440 -0.427560 0.441103 -0.695612 1.185204 -0.797707 0.368506 -1.084816 0.181739 0.351003 0.051662 -0.645961 -0.659713 -0.794884 -0.390237 -0.534372 -0.646630 -0.524275 0.225386 -0.048718 -0.343629 -0.863790 -0.018250 -0.576686 -0.218497 -0.622915 -0.596912 -0.308561
5343 0.885911 -0.765644 1.049285 -0.452111 0.370358 -0.144471 0.503329 -0.247931 -0.429822 0.395215 -0.176510 0.205426 -0.077514 0.037382 0.051862 0.481566 -0.364957 0.967619 -0.823091 -0.160818 0.319565 0.158462 0.295138 -0.282582 0.112782 -0.205047 0.156814 -0.759227 -0.066913 0.510094 0.411259 0.038927 0.091143 -1.109999 0.235400 -0.339876 -0.079055 0.632354 0.468261 0.970334 -0.240292 0.528347 -0.486423 0.201355 -0.250775 0.340536 -0.950218 0.107282 0.295541 -0.000839 0.460762 -0.374599 -0.382411 0.076012 -0.355472 -0.758768 0.496366 -0.372171 -0.682802 -0.178180 0.817330 0.024238 -0.089649 0.880657
28899 -0.316011 -0.650747 -0.586736 0.193460 -0.518546 -0.051201 0.518856 -0.064690 0.130573 0.604459 0.250771 -0.299068 -0.069187 0.202364 -0.259926 0.066319 -0.351524 1.053661 0.035083 -0.337401 0.297568 0.138013 -0.046645 -0.150825 0.425702 -0.372614 0.154781 -0.873835 0.096149 -0.261774 0.357574 0.027082 0.284898 -0.416730 -0.538742 -0.796081 0.160374 0.690517 1.158221 0.666141 0.232640 0.959816 -0.649971 0.277132 0.730461 0.684569 0.302718 -0.146465 -0.052743 0.571285 0.269548 -0.194379 0.283800 -0.642020 -0.508956 -0.035730 0.050483 -0.018564 0.298291 -0.236437 0.167315 -0.677166 -0.114827 0.892977
2282 0.824372 -0.814698 0.945718 -0.411159 0.271305 -0.142662 0.535456 -0.217873 -0.427261 0.461865 -0.161288 0.186505 -0.013730 0.101717 0.076758 0.476278 -0.433634 0.971415 -0.734292 -0.214250 0.361761 0.181087 0.285134 -0.338638 0.146605 -0.231993 0.150369 -0.788889 -0.043134 0.428092 0.411223 -0.002557 0.096281 -1.058277 0.166126 -0.420723 -0.052611 0.642798 0.529943 0.976828 -0.266413 0.606964 -0.572126 0.262528 -0.158069 0.379331 -0.867637 0.115179 0.249641 0.082603 0.475555 -0.336284 -0.334512 -0.001171 -0.371863 -0.770736 0.487782 -0.304810 -0.610176 -0.173757 0.788297 -0.000086 -0.054927 0.923768
28943 -0.220677 -0.722922 -0.503479 0.163708 -0.504332 -0.031987 0.548769 -0.027630 0.072217 0.616128 0.164651 -0.269806 -0.014185 0.204096 -0.165805 0.064880 -0.397002 1.084712 -0.042449 -0.338053 0.368988 0.139122 -0.004223 -0.255595 0.375362 -0.440999 0.152363 -0.883114 0.051593 -0.315629 0.366514 0.031973 0.260823 -0.464412 -0.502433 -0.893901 0.192564 0.657464 1.116884 0.698555 0.074257 0.993141 -0.703380 0.338041 0.789849 0.680122 0.242303 -0.134473 -0.090053 0.576223 0.286373 -0.160570 0.302692 -0.665204 -0.480014 -0.062149 0.122498 0.011858 0.256187 -0.198275 0.186591 -0.576197 -0.082230 0.887060
29488 -0.548561 0.659842 -0.059805 -0.231787 0.484772 0.501190 0.486232 0.030575 0.124317 -0.062072 0.580675 0.639767 -0.302111 -0.437829 -0.660632 0.075729 0.674566 0.915183 -0.706275 0.228630 -0.291015 -0.321652 -0.733358 0.597735 0.947624 -0.067841 0.715082 -0.614871 -0.143184 0.001889 0.436467 0.105282 0.318081 -0.119135 -0.315706 0.043432 -0.048152 -0.387853 0.473188 -0.619892 1.174853 -0.749530 0.371673 -1.035820 0.185651 0.411372 0.036792 -0.627793 -0.628830 -0.750336 -0.352239 -0.583547 -0.681521 -0.532527 0.204403 -0.057478 -0.320568 -0.875536 -0.038749 -0.595466 -0.204657 -0.650370 -0.567432 -0.234856
6440 0.367435 -0.588135 0.547771 0.294802 -0.692577 -0.313061 -0.022287 -0.344802 -0.202675 0.468561 0.045480 -0.017253 0.277041 0.892699 -0.028046 0.845424 0.060574 -0.031098 -0.460628 -0.377857 -0.258694 0.114506 0.110464 -0.704579 0.087364 -0.090944 -0.552137 -0.422481 0.148600 0.288033 0.651897 -0.252980 -0.216131 -0.578977 -0.097004 -0.296942 0.175280 0.302375 0.442538 0.920029 -0.337005 0.810459 -0.395235 1.110315 0.360073 -0.195783 -0.058569 -0.416327 0.125683 0.235108 0.255442 0.458966 0.107469 0.091374 -0.674113 -0.905751 0.572552 0.552937 -0.196637 0.143532 0.138231 0.367011 -0.243999 0.875428
24436 -0.132338 -0.121860 0.850006 0.011217 0.052371 0.232179 0.086837 -0.761942 -0.093905 0.743330 0.295060 0.253587 -0.061752 1.167369 -0.364676 1.185988 0.919144 -0.206447 -0.552679 -0.435789 -1.089291 -0.000654 -0.405953 -0.148967 0.458129 0.492659 -0.476897 -0.189386 -0.224163 0.651361 0.755551 -0.328623 -0.306203 -0.285325 0.147684 -0.007284 -0.044317 -0.087609 0.111013 0.027455 0.577581 -0.223227 -0.207795 0.056405 -0.102153 -0.193540 -0.282952 -0.428774 -0.505965 -0.457151 -0.011710 0.398228 -0.349899 0.711716 -0.656136 -0.745442 0.749769 -0.172558 -0.279335 -0.164246 0.421831 0.309081 -0.603673 0.310236
5511 -0.072675 -0.523511 0.203193 0.119303 -0.282205 0.309147 0.555649 0.057568 -0.092062 0.696510 0.183476 0.481430 0.877067 0.755934 0.210662 0.554501 -0.109644 0.358764 0.195484 -0.224951 -0.308996 0.082078 -0.549935 -0.560258 1.064302 0.246732 0.192511 -0.517445 0.060120 -0.161189 0.878548 -0.558879 0.008412 0.442235 -0.610241 -0.864909 0.398243 -0.526177 0.703454 -0.156163 0.045580 0.138436 -0.642793 0.373921 0.753493 0.237661 -0.091796 -0.181806 -0.805943 0.048181 0.052340 0.253333 -0.597856 -0.613875 -0.385839 -0.820570 0.072478 0.279845 -0.055142 -0.024192 -0.056098 0.028622 0.006078 0.091096
30204 -0.865476 0.316316 0.144758 -0.306849 -0.302911 0.294406 0.210338 -0.757391 -0.047733 0.558082 1.209801 0.435213 -0.313221 0.712984 -0.535658 0.328864 0.734983 -0.134742 -0.108562 -0.619063 -0.745391 -0.241894 -0.876722 0.314422 1.103250 0.109616 0.024253 -0.677173 -0.039412 0.206491 0.746089 -0.385481 0.094549 -0.058022 -0.429499 -0.082799 -0.351245 -0.018714 0.023225 -0.044815 1.085575 -0.611524 -0.290803 -0.770951 -0.046485 0.147065 -0.079157 -0.695674 -0.630732 -1.095084 -0.234232 0.238140 -0.511888 -0.332195 -0.198004 -0.431835 0.190461 -0.475235 0.115722 -0.381859 -0.017362 -0.416196 -0.474112 -0.102315
1985 0.208199 0.099132 0.924178 -0.380940 0.565626 0.101112 0.230482 -0.304534 -0.313443 0.008907 0.055987 0.287072 -0.742305 -0.310324 -0.451017 0.319266 0.478019 0.943664 -1.556287 0.075916 -0.021490 -0.335047 -0.075915 0.194187 -0.050103 -0.419941 0.220921 -0.752886 -0.302622 0.443669 0.448011 0.368741 0.142829 -1.242554 0.402586 0.284178 -0.260180 0.466516 0.359031 0.573536 0.319908 -0.042308 0.271783 -0.252754 -0.123507 0.040230 -0.446723 -0.686557 0.143961 -0.469977 0.221597 -0.561846 -0.249588 0.273934 0.098444 -0.405603 0.596290 -0.932926 -0.568650 -0.326033 0.505706 -0.022664 -0.566487 0.481445
29135 -0.219256 -0.224214 0.114409 -0.167544 0.599308 0.140531 0.820927 -0.183974 0.166498 0.345955 0.369191 0.322005 -0.138932 -0.054750 -0.630925 0.152604 0.019508 1.145984 -0.131948 0.039418 -0.152915 0.071859 -0.468201 0.415432 0.989138 0.360677 0.655585 -0.990531 0.173850 0.618715 0.569483 0.003730 0.388667 -0.162728 -0.369500 -0.202063 -0.132073 0.212981 1.144721 -0.224517 0.995773 -0.115204 -0.206536 -0.534038 -0.075770 0.654915 -0.293218 -0.050674 -0.291877 -0.044529 0.166912 -0.746690 -0.938123 -0.218957 -0.407403 -0.335533 -0.173360 -0.717203 -0.281427 -0.709966 0.326445 -1.044544 -0.293140 0.532416
29044 -0.208285 -0.187080 0.121306 -0.191020 0.648726 0.176892 0.837157 -0.096189 0.146408 0.310588 0.326231 0.364610 -0.120599 -0.126341 -0.582744 0.092543 -0.031825 1.199381 -0.133833 0.074851 -0.118824 0.048342 -0.470550 0.392874 0.996645 0.313451 0.699351 -0.963710 0.166281 0.564000 0.537592 0.029266 0.409830 -0.116940 -0.383181 -0.222376 -0.106726 0.161208 1.147006 -0.272629 0.943683 -0.132450 -0.208177 -0.557771 -0.017801 0.661548 -0.307198 -0.039479 -0.322087 -0.051193 0.147250 -0.770497 -0.958274 -0.277656 -0.336833 -0.308723 -0.199184 -0.741298 -0.277481 -0.704785 0.318607 -1.035745 -0.276720 0.474743
15337 0.370884 -0.526975 0.613190 0.307738 -0.673584 -0.337252 -0.041124 -0.356731 -0.254656 0.469370 0.015780 0.037746 0.302672 0.939651 -0.059688 0.932481 0.148260 -0.030429 -0.535722 -0.366492 -0.325774 0.100382 0.051012 -0.649739 0.126360 -0.074201 -0.568048 -0.399538 0.183840 0.353948 0.672025 -0.232052 -0.195313 -0.559465 -0.062992 -0.229327 0.168136 0.280307 0.454697 0.870677 -0.243813 0.748395 -0.347747 1.081078 0.320067 -0.211253 -0.115170 -0.440415 0.103531 0.187457 0.226812 0.438290 0.077537 0.176055 -0.680219 -0.942304 0.573152 0.539013 -0.244635 0.108595 0.154993 0.414746 -0.255373 0.869828
513 0.106986 -0.783790 0.249572 0.340594 -0.065139 -0.301729 -0.400096 -0.088002 0.306650 0.549963 -0.468601 -0.803750 0.656679 1.011243 -0.047032 0.491319 -0.257393 -1.156762 1.175022 -0.466442 -0.509454 0.244355 0.478233 -0.377362 -0.315508 1.111064 -0.589362 0.521906 0.168548 0.703088 0.026395 -0.620011 -0.555793 0.405647 -0.119373 -0.386772 0.117687 0.052182 -0.140067 -0.385320 -0.431827 -0.056988 -0.350220 0.836222 -0.428150 -0.275339 0.288854 0.600144 -0.031938 0.734085 0.522390 0.593179 -0.242527 0.267692 -0.780303 -0.545303 0.365131 1.030430 0.036862 0.043163 0.112452 0.151479 0.503423 0.279091
15365 -0.421722 0.394965 -0.493772 0.965847 -0.958106 -0.201316 -0.772884 0.421605 -0.610874 -0.142930 -0.227943 0.112864 0.903471 0.405097 0.289328 0.463868 0.480081 -0.428263 0.084662 0.019348 -0.060009 -0.469523 -0.041341 0.146312 -0.316175 -0.476650 -0.486007 0.777820 -0.047240 -0.858600 0.181237 0.265297 -0.239637 0.092721 0.502309 0.405450 0.197898 0.095913 -0.192525 0.113820 -0.028646 0.117072 0.745666 0.647260 0.180318 -0.915778 0.845063 0.023163 -0.009847 0.111245 -0.261847 0.601402 0.890506 0.250713 0.539544 -0.040742 -0.007858 0.848906 0.100426 0.582598 -0.618767 1.204024 0.392336 -0.182726
17393 0.236605 1.177966 -0.147753 -0.113850 -0.252722 -0.140100 -0.390196 0.138181 -0.438688 -0.089721 -0.312944 0.933509 0.294034 -0.565399 0.138412 0.337189 -0.389011 0.056411 -0.382827 -0.722899 0.369078 -0.156928 -0.094932 0.321783 0.469535 -0.422779 0.557457 1.048101 0.714157 -0.393724 -0.474454 -0.074336 0.665146 0.703800 0.000227 0.706504 -0.214107 -0.473148 0.253558 -0.011729 0.746270 -0.216667 0.233628 -0.440515 -0.780239 -0.255390 -0.335889 -0.005280 -0.020346 -1.062286 -0.777583 0.064876 -0.232802 -0.225532 0.849124 -1.004882 -1.514094 0.126009 -0.350039 0.176700 0.409732 0.360881 0.476586 -0.550020
520 0.145543 -0.767991 0.201038 0.338063 -0.079183 -0.321764 -0.411348 -0.062235 0.314385 0.537687 -0.483544 -0.820152 0.694574 0.956039 -0.011361 0.432636 -0.287907 -1.178633 1.268943 -0.404303 -0.480405 0.276369 0.486831 -0.322470 -0.297002 1.146044 -0.564762 0.535355 0.220145 0.687756 -0.017998 -0.612935 -0.560089 0.469747 -0.114891 -0.367204 0.080895 0.076896 -0.210760 -0.426646 -0.403407 -0.133259 -0.325244 0.771153 -0.510707 -0.262078 0.218930 0.731687 -0.013878 0.746759 0.519401 0.553871 -0.251762 0.299708 -0.764986 -0.532807 0.286447 1.083729 0.023061 0.052991 0.084925 0.174744 0.569077 0.252648
7177 0.060969 -0.349081 -0.611648 0.241838 -0.222771 -0.185554 -0.195664 -0.203428 0.928471 -0.037339 -0.256882 -0.885736 -0.794871 0.362263 -0.145939 -0.767548 -0.525021 -0.913847 0.986335 0.088198 -0.346140 -0.227459 0.747617 -0.351992 -0.560325 0.395191 -0.466409 0.051814 -0.096375 0.677822 -0.465560 -0.112094 -0.701408 0.327854 -0.087945 -0.018350 0.450316 0.596781 0.121565 -0.055264 -0.769367 0.329686 -0.024036 0.780548 0.296415 -0.366161 1.015114 0.043682 0.231073 0.855486 0.282141 0.337423 0.181542 0.373185 -0.375061 0.919721 0.243008 0.347905 0.680907 -0.089224 -0.389513 -0.781420 0.342950 -0.287200
29709 -0.463342 -0.618785 -1.123401 0.059897 0.153916 -0.012211 0.919602 0.307013 0.312373 -0.348967 -0.154862 -0.957329 0.633595 -0.548397 0.357049 -1.086415 0.446995 0.264074 0.720841 0.106127 0.096322 0.370091 -0.355810 0.237125 0.233058 -0.199264 0.567612 -0.400184 0.190921 -0.809712 0.443012 0.275297 0.227565 -0.140669 -0.682703 -0.749640 0.509927 -0.443345 -0.144710 -0.041791 0.547792 -0.105955 -0.190413 -0.529067 1.016646 1.085555 -0.238763 0.378881 -0.357904 0.606036 0.517151 -0.679299 0.057778 -0.494546 -0.063157 0.370383 -0.395363 -0.264036 0.815014 0.074687 0.003375 -0.041029 0.399730 -0.070605
15887 -1.068423 0.358738 -0.194696 0.453244 -0.212863 -0.020229 -0.886396 0.340450 0.031606 0.035920 -0.324184 -0.345323 0.609057 1.051840 -0.394384 0.648936 0.677282 -1.036507 0.633731 -0.727952 -0.883416 -0.349487 -0.122657 -0.110456 -0.485408 0.579820 -0.585197 1.039926 -0.081116 0.389111 0.179529 -0.336662 -0.200315 0.752726 0.117720 0.100910 0.337451 -0.582539 -0.147880 -0.939047 0.225525 -0.461093 0.553927 0.449074 0.000879 -0.878767 1.232380 -0.235055 -0.585794 0.124102 -0.011792 0.719297 0.136236 0.230927 -0.212661 0.177264 0.387586 0.683180 0.257125 0.167995 -0.226605 0.431803 0.058674 -0.297152
9746 0.030467 1.123335 0.455999 -0.245291 0.664174 -0.498019 -0.107896 0.701320 -0.282572 -0.620408 -0.127331 0.928947 0.123508 -0.842374 -0.476704 -0.073823 -0.607342 0.573576 -0.302911 -0.093400 0.374691 -0.322713 -0.349887 0.547977 0.343346 -0.302553 0.546150 0.010762 0.601429 0.745317 -0.273847 0.128214 0.774881 0.786014 -0.227031 0.612034 -0.113768 -0.382493 0.773048 -0.246257 0.647312 -0.287229 0.649743 -0.061593 -0.471819 0.244750 -0.025650 -0.381817 -0.054402 -0.254764 -0.518341 -0.784911 -1.068894 -0.852355 0.764849 -0.526000 -0.829660 -0.253850 -0.392944 -0.609536 -0.062384 -0.734519 0.276980 -0.223439
5651 -0.192490 -0.570505 -0.109940 -0.359344 0.090686 0.511657 0.921209 -0.226391 0.549562 0.939260 0.440457 -0.059360 -0.505452 0.486915 -0.453172 -0.466369 -0.391652 0.469422 0.847377 -0.260561 -0.517556 0.264678 -0.470077 0.016889 0.794998 0.390702 -0.122153 -1.047206 -0.234559 0.409211 0.392981 -0.258801 -0.077901 0.297151 -0.346995 -1.086028 -0.156409 0.277765 0.336991 -0.416256 0.319973 -0.398748 -0.821269 -0.488170 0.631369 0.563433 0.044090 0.043255 -0.846614 0.147175 0.023159 -0.102783 -0.431078 -0.574451 -0.646132 0.346160 0.206028 -0.307569 0.451134 -0.542485 0.060032 -1.190275 -0.040935 0.146938
512 -0.116172 0.826752 -0.746268 0.508754 -1.079731 -0.412450 -0.563560 -0.122051 0.327025 -0.388742 0.762888 -0.049511 0.057613 -0.028054 0.300967 -0.627849 -0.308231 -1.221457 0.672804 -0.070965 -0.007751 -0.008279 0.127555 0.068132 0.136788 -0.452884 -0.148043 -0.168632 0.838736 0.035768 -0.108364 -0.209697 -0.509142 0.374542 -0.498935 0.636127 0.223326 0.224685 -0.188134 0.567461 -0.185001 0.338494 0.581002 0.715035 -0.014737 -0.852023 0.835103 -0.471431 0.520613 -0.234996 -0.398369 0.540446 0.385409 -0.676644 -0.259905 -0.073240 -0.814979 0.693173 0.788640 0.482702 -1.147633 -0.320628 0.020440 -0.392562
30 0.135568 0.056507 -0.483799 -0.246081 -1.173972 0.438084 0.001521 0.060686 -0.950439 0.389215 0.570934 0.794181 0.483187 -0.368947 1.094462 0.103308 -0.626939 0.354896 -0.117240 -0.340668 0.823761 0.006289 -0.240213 0.062142 0.786883 -1.165493 0.326379 -0.059522 0.299110 -1.244607 0.179117 -0.017595 0.160993 -0.518078 -0.048770 -0.386598 -0.193886 0.550219 -0.134547 1.240770 -0.093293 0.480940 -0.441120 -0.567331 0.022593 -0.301109 -0.511278 0.400813 0.101576 -0.822591 -0.347640 0.015334 0.188655 -0.801309 0.178250 -0.529736 -0.746614 0.028054 -0.196513 0.640989 -0.295718 0.554096 0.206476 0.013684
545 -0.400484 -0.053331 0.645779 -0.161515 0.753906 0.224478 0.057144 -0.458909 0.176772 -0.229454 0.328015 -0.267016 -0.914660 0.182234 -0.693229 0.353343 1.098676 0.039678 -0.971843 0.206449 -0.617276 -0.404985 -0.042775 0.058514 -0.637625 0.234115 -0.181224 -0.412564 -0.788825 0.627443 0.233317 0.200345 -0.300691 -1.151228 0.435565 0.416806 0.019589 0.195981 -0.138445 0.080690 0.009277 -0.099531 0.230911 -0.367416 0.018738 -0.155699 0.113501 -0.557525 0.145861 -0.193010 0.259927 -0.246367 0.081015 0.870492 -0.374168 0.546380 1.260199 -0.911867 -0.229811 -0.144952 0.149400 -0.060280 -0.967350 0.362426
15395 -0.200710 -0.333706 -0.463307 0.479369 0.618003 0.126158 0.510284 0.101387 0.025009 -0.127713 -0.747540 -0.507969 0.136474 -0.397753 -0.246270 -0.173085 0.996453 0.912685 -0.136478 0.792705 0.132901 0.216889 -0.468474 0.702660 0.105067 -0.050648 0.063545 0.378162 -0.593824 -0.844676 0.018913 0.721266 0.652892 0.273820 0.134691 -0.178695 0.068244 -0.359886 -0.123703 -0.867018 0.771021 -0.435584 0.116784 -0.809228 0.588855 0.953867 -0.356024 0.493390 -0.531603 0.475044 -0.081759 -0.806163 0.508554 0.781463 0.434628 0.568101 0.199983 -0.323264 -0.040459 -0.419069 0.429439 0.488746 0.395735 -0.050953
6696 0.746002 -0.373915 0.500059 0.147500 -0.234793 -0.076676 0.497283 -0.558765 0.816658 0.520355 -0.127198 -0.118743 -1.016205 0.775901 -0.629836 0.078625 0.024302 0.585673 -0.250817 0.376594 -0.441669 0.472389 0.247450 -0.222688 0.134661 0.317800 -0.815643 -0.969531 -0.252711 0.765223 -0.198690 0.321751 -0.270599 0.051610 0.100797 -0.156401 -0.293761 0.416903 0.299223 0.039095 -0.194720 0.255010 -0.186379 1.000859 0.480895 -0.066804 0.148598 -0.511271 -0.297005 0.531133 -0.071071 0.217117 0.501414 0.375337 -1.114049 0.287063 0.548787 0.105826 0.020685 -0.581498 0.175693 -0.708706 -0.451498 0.626747
18988 -0.237039 -0.545039 -0.177440 -0.372877 0.077162 0.576432 0.913918 -0.223068 0.501280 0.925114 0.465756 -0.051961 -0.523097 0.480660 -0.382154 -0.484310 -0.401793 0.420049 0.862934 -0.250771 -0.514237 0.239938 -0.486706 0.049082 0.781247 0.383570 -0.075036 -1.003383 -0.257776 0.333469 0.365548 -0.257125 -0.077762 0.295680 -0.332494 -1.095900 -0.161219 0.286004 0.289787 -0.428336 0.315917 -0.440467 -0.807730 -0.582459 0.627928 0.542932 0.039208 0.078157 -0.828846 0.099772 0.015601 -0.101516 -0.439197 -0.601446 -0.617566 0.404048 0.178944 -0.317336 0.474402 -0.511515 0.014544 -1.167261 -0.056775 0.088282
17453 0.237166 0.605416 0.886391 -0.650407 1.022748 -0.500551 -0.506798 0.696265 -0.573404 -0.917723 -0.618693 0.584275 0.017735 -0.737062 -0.063079 0.154930 -0.458656 -0.320744 -0.547083 0.050936 0.265441 -0.451031 0.295120 0.216863 -0.716745 -0.142955 0.272745 0.600047 0.142354 1.115940 -0.538066 0.137457 0.144261 -0.121555 0.501120 0.792708 0.085610 -0.121166 -0.100340 -0.034996 -0.391792 -0.040198 0.627977 -0.406632 -1.078093 -0.415055 -0.293481 0.238873 0.427419 -0.372391 -0.231316 -0.484144 -0.916281 0.236356 0.529392 0.038238 -0.000942 -0.288089 -0.732519 -0.086772 0.037633 -0.131167 -0.060940 -0.207254
2610 -1.087265 0.395867 -0.259267 0.432590 -0.234299 0.029341 -0.906432 0.370317 -0.036141 0.014400 -0.319843 -0.312762 0.630350 0.993138 -0.299363 0.652376 0.672713 -1.046926 0.670220 -0.726220 -0.852450 -0.368256 -0.133699 -0.048082 -0.515421 0.547343 -0.562916 1.143405 -0.086058 0.280586 0.140439 -0.285448 -0.184975 0.757354 0.168125 0.105595 0.321271 -0.573776 -0.215925 -0.922073 0.257336 -0.489946 0.616486 0.366599 -0.050241 -0.904714 1.228065 -0.181677 -0.575125 0.099049 -0.012928 0.702953 0.161721 0.217518 -0.177623 0.244473 0.338419 0.650415 0.277937 0.234761 -0.247732 0.487688 0.082785 -0.367432
1078 0.208364 0.461246 -0.871093 0.591867 -0.957853 -0.225163 -0.714305 0.257723 0.096043 0.213862 -0.231715 0.215276 0.251477 0.133767 0.442699 -0.589465 -1.056150 -0.565539 1.125196 -0.343558 0.383924 0.227207 0.387395 0.136627 0.149787 0.179222 -0.163403 1.022895 0.701442 -0.457278 -0.578657 -0.288224 0.021994 1.460171 0.179198 0.135431 -0.548456 0.161223 -0.025839 -0.359935 0.125829 -0.179388 0.078641 0.639840 -0.524989 -0.267623 0.472861 0.351751 -0.090152 0.235568 -0.336568 0.785250 0.195722 -0.346005 0.808941 -0.189261 -1.300864 1.002367 0.340258 0.118447 0.037414 -0.064054 0.928957 -0.512395
6409 0.435792 0.905974 0.100983 0.087591 -0.474393 -0.667980 -0.315084 0.452566 -0.040052 -0.124107 0.210694 0.844124 0.306757 -0.204976 -0.044133 -0.241629 -1.216260 0.097186 0.364377 -0.270392 0.418085 0.180646 0.018459 0.210159 0.578676 -0.226145 0.057347 0.085734 1.065617 0.537058 -0.241024 -0.245414 0.351730 1.194675 -0.439418 0.554083 -0.267334 -0.020233 0.605857 0.168539 0.230336 0.164111 0.455612 0.792881 -0.482747 -0.177447 0.164954 -0.310466 -0.006373 -0.142597 -0.538004 0.071344 -0.562710 -0.990135 0.375726 -0.763264 -1.191674 0.571453 -0.050546 -0.332103 -0.132953 -0.699559 0.471161 -0.102185
568 0.921273 -0.269053 0.542019 -0.671516 0.151358 0.506198 -0.077164 -0.518826 -0.143028 0.436774 0.077731 0.429259 -0.766832 -0.009938 0.548570 0.158533 -0.695702 -0.490933 -0.251744 0.260543 0.134333 0.276841 0.514386 -0.082921 0.069912 0.291724 -0.111244 0.026334 -0.276109 0.440687 -0.704532 -0.135334 -0.619960 -0.630760 0.648704 0.219356 -0.593970 0.863169 -0.874574 0.295840 -0.804368 -0.078171 -0.441686 -0.601045 -0.994055 -0.678569 -0.845654 0.831776 0.431127 -0.714307 -0.058128 0.071556 -0.176675 0.762882 -0.411069 0.095671 0.191676 -0.229173 -0.646535 0.231685 0.270565 0.010014 -0.467540 0.125155
5628 0.990659 -0.924653 0.041711 0.168946 -0.776381 -0.390175 -0.043570 0.020436 -0.408151 0.467886 -0.651529 -0.217922 0.825847 0.321094 0.751870 0.232153 -0.971043 -0.209795 0.510736 -0.288965 0.575131 0.675621 0.564109 -0.430013 0.192302 0.008528 -0.175675 0.246676 0.630516 -0.312681 -0.144214 -0.176551 -0.074986 -0.037836 0.143266 -0.479964 -0.116587 0.492512 -0.114465 0.735883 -0.509821 0.630763 -0.691657 0.666254 -0.372783 -0.071469 -0.759819 0.990878 0.406231 0.425324 0.441731 0.417491 0.160546 0.064375 -0.326767 -0.863124 -0.428448 1.036629 -0.272690 0.264559 0.530435 0.547421 0.736563 0.586679
3649 0.447626 -1.025486 0.005335 -0.262674 0.782886 0.330575 0.327228 -0.556875 0.291916 0.033878 -0.252335 -0.984535 -0.383385 -0.136667 0.513341 -0.282587 0.349227 -0.450620 0.642651 0.658177 -0.059853 0.188346 0.416406 0.114491 -0.851410 0.849517 -0.113828 0.373635 -0.868151 -0.228990 -0.311703 0.189219 -0.631275 -0.565552 0.507555 -0.054415 -0.083162 0.152456 -1.054168 -0.196422 -0.570125 -0.298510 -0.194511 -0.563720 -0.589693 0.108580 -0.438118 0.872992 0.637001 0.578010 0.791661 -0.162267 0.154645 0.835840 -0.282264 0.946406 0.676749 -0.337529 0.028378 0.123377 0.332432 0.325640 0.232383 -0.260261
71 0.171952 -0.617614 -0.018733 0.020024 -0.366020 -0.147862 -0.114755 0.001351 0.641594 -0.166147 0.334871 -0.968046 -0.009275 0.019419 0.423842 -0.942670 -0.629924 -0.617744 0.565561 0.624891 0.601496 0.893367 0.513948 -0.852562 -0.420079 0.157603 -0.321486 -0.715530 0.214308 0.102519 -0.254016 -0.257372 -0.485726 0.055498 -0.407702 -0.457860 -0.443158 0.033706 -0.829053 0.048395 -1.153562 0.270170 -0.527693 0.653276 0.575694 -0.105127 -0.107923 0.218674 0.498897 0.838614 0.431824 0.610941 0.710150 -0.149013 -0.498782 0.691297 0.402631 0.766951 0.199349 0.235453 -0.439476 -0.271326 -0.590913 0.362439
2125 0.115674 0.088774 -0.484861 -0.257513 -1.095826 0.417351 0.025272 0.046118 -0.972890 0.374903 0.546785 0.800895 0.447679 -0.398612 1.052152 0.112155 -0.580944 0.358462 -0.180835 -0.374985 0.806911 -0.014109 -0.284546 0.116699 0.822179 -1.153909 0.390487 -0.035373 0.345975 -1.202481 0.191940 0.000331 0.221076 -0.547345 0.011815 -0.324770 -0.187424 0.544959 -0.107776 1.224951 0.015963 0.440494 -0.409301 -0.636812 -0.019721 -0.262541 -0.541426 0.378390 0.128049 -0.861729 -0.321984 -0.040682 0.123935 -0.742074 0.222122 -0.563390 -0.779217 -0.014111 -0.224778 0.641288 -0.209510 0.547795 0.210987 0.043732
525 0.937980 0.096067 0.343469 -0.113271 -0.662876 -0.199431 -0.185592 -0.013832 -0.875528 0.103259 -0.186982 0.694530 0.328102 -0.273803 0.716921 0.624930 -0.540367 0.194551 -0.710245 -0.180464 0.659320 -0.057831 0.242945 -0.151413 0.121490 -0.721414 0.140693 0.248109 0.464062 -0.413718 -0.127379 0.127016 0.135810 -0.587545 0.405598 0.251088 -0.061163 0.395340 0.005272 1.218377 -0.327802 0.707126 -0.061132 0.258719 -0.469770 -0.401011 -0.720902 0.238706 0.666938 -0.391824 -0.157450 0.040721 0.134870 0.018210 0.162851 -0.894226 -0.563652 0.275336 -0.582579 0.549246 0.213402 0.810723 0.274880 0.404766
2128 0.880873 -1.119861 0.560857 -0.277923 0.732217 -0.382663 0.620965 0.301651 -0.436520 -0.576979 -0.945824 -0.720384 0.490694 -0.603047 0.408222 0.141121 0.112386 0.501687 -0.598117 0.197801 0.510081 0.015763 0.396400 -0.493154 -0.746143 -0.167375 0.388671 -0.070617 -0.183401 -0.357026 0.162933 0.412527 0.152759 -1.124689 0.316770 -0.180444 0.872933 -0.362402 -0.165523 0.703403 -0.822302 0.683406 -0.143077 0.173016 0.243204 0.310501 -0.759113 0.440980 0.747342 0.844006 0.836695 -0.686809 0.023467 0.215540 -0.223361 0.110456 0.434433 -0.080529 -0.410272 0.370097 0.425838 0.755914 0.413230 0.429795
599 -0.017282 -0.068385 0.058023 -0.307355 0.048774 0.104667 -0.384487 0.458006 -1.080263 -0.509506 -0.784748 0.249744 0.875592 -0.114392 0.930438 0.932538 0.617888 -0.062022 -0.372953 -0.152546 -0.014843 -0.527218 0.000023 0.166558 -0.924273 -0.394097 0.134602 1.309622 -0.426046 -0.830935 -0.046502 0.545553 0.030190 -0.550342 0.727321 0.227600 0.526098 -0.439960 -0.679794 0.416704 -0.120635 0.138290 0.665645 -0.385363 -0.580019 -0.555823 -0.167095 0.455849 0.204651 -0.192286 0.206468 -0.158791 0.219095 0.270908 0.274472 0.300094 0.126703 -0.214233 -0.321609 0.651877 0.289765 1.384418 0.259587 -0.345397
19471 -0.457580 0.984578 -0.807225 0.170704 -0.093616 0.134285 -0.211429 0.628793 -0.335092 -0.615826 -0.329067 0.369713 -0.006934 -0.851736 0.074873 -0.397981 0.251966 0.425510 -0.400947 0.227641 0.297033 -0.383545 -0.379116 0.497357 -0.189085 -1.053489 0.291048 0.656293 -0.218450 -1.203990 -0.539664 0.672688 0.579909 0.377246 0.118721 0.425019 0.234635 -0.321080 -0.119666 -0.261615 0.356752 -0.139274 0.661438 -0.632008 0.479928 0.027933 0.397269 -0.100329 -0.307171 -0.386510 -0.813138 -0.403156 0.653477 -0.236721 1.012416 0.751754 -0.584179 -0.203338 0.386489 0.202143 -0.376788 0.462965 0.188761 -0.739413
93 0.393574 0.945497 -0.247978 0.170971 -0.013303 -0.542419 -0.801051 0.442957 0.166138 -0.720913 -1.118503 -0.053150 0.025221 -0.465515 -0.119426 0.080319 -0.079929 -0.438840 -0.155689 -0.306586 0.261165 -0.271509 0.478835 0.055263 -0.698432 -0.278835 -0.117074 1.388475 0.178338 -0.132488 -1.129653 0.287944 0.393913 0.849237 0.169824 1.024257 0.177527 -0.626401 -0.208569 -0.440170 -0.038502 -0.000152 0.745306 0.421822 -0.452405 -0.622457 0.564499 0.076578 0.145095 -0.005136 -0.599443 0.172193 0.581114 0.300892 0.568033 0.109096 -0.739633 0.593113 -0.081478 0.171359 0.120626 0.463904 0.560781 -0.606027
1125 0.280677 0.254630 -0.526383 0.065369 -0.011510 -0.071994 0.950880 0.060096 0.764323 -0.219211 -0.083820 -0.167844 -0.697247 -0.535308 -0.271372 -1.124503 -0.055189 0.955020 0.331057 0.603929 0.116979 1.034331 -0.374675 0.802779 0.570206 -0.237959 0.128029 -0.760767 0.548966 -0.148278 -0.435283 0.944924 0.454338 0.783062 -0.259375 -0.094748 -0.402138 -0.177122 -0.051264 -0.298077 1.003204 -0.424486 0.144216 -0.189987 0.808756 0.768997 -0.463654 -0.232171 -0.527502 0.391227 -0.318895 -0.719066 0.437093 -0.265613 -0.368073 0.699201 -0.824514 -0.342801 0.437872 -0.641150 0.220898 -1.015719 -0.047961 0.035386
2146 -0.151464 -0.418841 0.324154 -0.432457 1.329635 -0.328863 0.287958 0.387808 -0.225597 -0.554566 -1.180997 -0.679869 0.702913 -0.145301 -0.274909 0.518566 0.754176 -0.115912 -0.233653 -0.793070 -0.362544 -0.248723 -0.135463 0.030335 -0.436857 0.497647 0.583280 0.881185 -0.020329 0.250734 0.279586 -0.026667 0.581379 -0.196645 0.176272 0.095455 0.897610 -1.168149 0.043620 -0.488176 0.531156 -0.389781 0.172833 -0.602736 -0.303277 0.308102 -0.337588 0.335519 -0.135346 0.160016 0.572042 -0.689398 -0.840876 0.431504 -0.023395 -0.240607 0.061311 -0.265591 -0.422574 -0.000042 1.029938 0.572987 0.522044 -0.075537
11451 0.221318 -0.821919 -0.876092 -0.247634 -0.185368 0.240085 0.459376 0.108994 -0.393067 0.617959 -0.096954 -0.187614 0.479505 -0.266214 0.946586 -0.722933 -1.240638 -0.131686 1.256462 -0.332476 0.609902 0.487972 -0.113088 0.078542 0.603473 0.108286 0.536384 0.098644 0.458117 -0.677713 0.166527 -0.488572 0.099176 0.153364 -0.083919 -0.968890 -0.037145 0.629800 -0.142037 0.156489 -0.044988 -0.147477 -0.926795 -0.792301 -0.188883 0.565506 -0.625547 1.186895 0.137903 0.185973 0.454824 -0.161991 -0.550567 -0.571803 0.316987 -0.102889 -0.743659 0.378590 0.154869 0.336306 0.358003 -0.189689 0.873530 -0.071511
6245 0.077654 1.145798 0.469454 -0.191044 0.646664 -0.543431 -0.123586 0.660457 -0.271228 -0.641245 -0.136922 0.895009 0.103652 -0.855779 -0.517185 -0.056030 -0.549613 0.573908 -0.382210 -0.070714 0.369384 -0.334588 -0.340902 0.550824 0.315291 -0.322507 0.511220 0.007241 0.601822 0.741926 -0.265091 0.155331 0.769052 0.723523 -0.201428 0.676796 -0.097532 -0.362517 0.796983 -0.196738 0.645509 -0.248388 0.688144 -0.018429 -0.454745 0.218789 0.006713 -0.433750 -0.015139 -0.247244 -0.534388 -0.764704 -0.993330 -0.773374 0.767420 -0.536469 -0.814185 -0.233391 -0.408393 -0.589578 -0.074453 -0.694465 0.276907 -0.184782
6759 -0.395190 0.865117 0.303109 -0.182438 0.401391 0.171962 -0.787326 -0.173491 0.364995 -0.157055 -0.046774 0.235584 -0.697176 0.436427 -0.590456 0.264224 0.338184 -0.964368 -0.106261 -0.254964 -0.653205 -0.170682 0.195691 0.211771 -0.341445 0.671772 -0.361053 0.657719 -0.122931 1.063270 -0.623754 -0.250553 -0.374600 0.557663 0.461523 0.809825 -0.452658 -0.191788 -0.565610 -0.951838 0.176805 -0.763634 0.511514 -0.294965 -0.865461 -0.920007 0.459232 -0.039847 -0.261733 -0.697716 -0.468656 0.401043 -0.076897 0.852475 -0.097133 0.323753 0.159268 -0.141221 -0.175657 -0.197324 0.083806 -0.212324 -0.580552 -0.437495
29800 -0.472065 -0.669709 -1.085093 0.050644 0.132295 0.021230 0.946452 0.268509 0.321734 -0.323271 -0.089262 -0.970100 0.643563 -0.489278 0.380669 -1.053752 0.467112 0.225965 0.718399 0.059240 0.035517 0.387781 -0.371048 0.167073 0.250727 -0.188614 0.576117 -0.472086 0.197515 -0.778291 0.496683 0.240282 0.172890 -0.186057 -0.710873 -0.782923 0.527428 -0.456265 -0.159946 0.013848 0.519005 -0.084919 -0.228639 -0.485917 1.060117 1.047662 -0.244404 0.317236 -0.352745 0.594184 0.561790 -0.620932 0.046464 -0.534630 -0.124210 0.338726 -0.361317 -0.278573 0.817696 0.122146 0.015715 -0.053149 0.305620 -0.040591
4202 -0.514135 1.277510 -0.211046 -0.147962 -0.608235 0.249493 -0.243946 0.475759 -0.963705 -0.068170 0.790633 1.483123 0.184613 -0.438995 0.153820 0.186169 -0.226540 0.698564 -0.532188 -0.168985 0.316715 -0.423293 -0.779035 0.646773 0.700278 -0.988281 0.458129 -0.030775 0.568275 -0.563835 0.320183 0.209806 0.617224 0.194421 0.136336 0.317162 -0.340794 0.169187 0.457716 0.410770 0.884386 -0.218330 0.589145 -0.560735 -0.142177 -0.155183 -0.085071 -0.541566 -0.158112 -1.080859 -0.718291 -0.176653 -0.287884 -0.859097 0.953903 -0.295901 -0.890835 -0.393020 -0.141191 0.189029 -0.450452 -0.057232 -0.088396 -0.285884
111 -0.868914 0.170629 0.003266 0.313206 1.007556 -0.348213 -0.368412 0.746180 0.196151 -0.678144 -0.702156 -0.718671 0.013808 -0.079329 -0.688719 0.051810 0.434816 -0.591296 0.497097 -0.175020 -0.565356 -0.743183 0.014135 0.450361 -1.207196 0.426820 -0.203001 1.067857 -0.545227 0.552122 -0.483024 0.443855 0.156101 0.199275 0.010001 0.148013 0.830963 -0.413092 0.082754 -0.972297 0.114533 -0.274250 0.740020 -0.028822 -0.094830 0.205080 1.220806 0.019741 -0.406521 0.576861 0.227362 -0.637837 -0.280124 -0.044168 0.129640 0.808374 0.467746 -0.294208 0.474353 -0.322993 -0.155478 -0.214229 0.571035 -0.472173
7792 -0.371503 0.110775 -0.469287 -0.347262 0.635822 0.141451 0.656053 0.510158 0.301410 -0.124518 0.281031 -0.000403 -0.127843 -0.695331 -0.202212 -1.203070 -0.754721 0.495391 0.929233 0.366813 0.117983 0.006171 -0.393517 0.382260 0.449634 0.178553 0.496275 -0.566072 0.044163 0.273306 0.008537 0.048843 0.395191 0.764638 -0.602866 -0.588175 -0.020271 -0.220502 0.366235 -0.787437 0.252775 -0.530108 -0.081986 -0.689674 0.398522 1.013384 0.046964 0.145489 -0.533653 0.328473 0.001658 -0.773924 -0.905158 -1.012093 0.317499 0.710246 -0.527535 -0.528586 0.435632 -0.582285 -0.353148 -1.271656 0.333194 -0.417006
3190 -0.392374 0.302704 -0.011803 0.222656 0.979324 0.238188 0.011096 0.495859 0.050954 -0.895199 -0.546615 -0.217996 0.444139 -0.383836 -0.180112 -0.150366 1.158982 0.083040 -0.216319 0.507598 -0.136814 -0.336988 -0.484695 0.025914 -0.516293 0.071901 0.295703 0.298930 -0.894828 -0.851426 0.020265 0.345394 0.162675 0.313408 0.064183 0.397342 0.606197 -1.357482 -0.436902 -1.088391 -0.120245 -0.744787 0.652747 -0.496887 0.801573 -0.154010 0.426028 -0.271122 -0.282651 0.151265 -0.213415 -0.384627 0.213877 0.316622 0.462530 0.693511 0.603262 -0.131561 -0.073338 0.146961 -0.428994 0.793878 0.047350 -0.729846
5242 0.694917 0.249039 0.384977 -0.728381 0.394283 -0.078050 0.435434 0.274411 -0.476570 -0.236573 0.293957 0.855409 -0.015397 -1.135219 0.349119 -0.535346 -1.248201 0.732636 -0.050971 0.186514 0.781838 0.309930 -0.064020 0.358315 0.513831 -0.430627 0.642832 -0.464087 0.571787 0.258319 -0.094868 0.090057 0.369233 -0.040983 -0.037686 0.078298 -0.375737 0.302705 0.110423 0.404750 0.120182 -0.032483 -0.093087 -0.599134 -0.529940 0.364836 -0.971877 0.241374 0.357879 -0.382952 -0.052117 -0.727689 -0.912431 -0.850605 0.374554 -0.225572 -0.945331 -0.536799 -0.418482 -0.170023 0.042258 -0.808539 0.166074 0.007511
8827 0.592793 -0.806550 -0.265144 0.070602 0.343437 -0.312731 -0.136350 0.454248 0.071770 -0.301396 -1.090006 -0.935712 0.488948 -0.276493 0.642654 -0.419993 -0.538571 -0.734336 1.095072 0.111372 0.297324 0.118239 0.577671 -0.181396 -0.932059 0.414467 -0.056177 0.899175 -0.136165 -0.294670 -0.605240 0.120854 -0.231753 0.221280 0.231173 -0.303369 0.447190 -0.124184 -0.662038 -0.231630 -0.926767 0.148681 -0.098384 0.221627 -0.269107 -0.007355 0.067122 1.066355 0.402032 1.105989 0.553540 -0.162160 0.105745 0.109049 -0.112030 0.532203 0.040590 0.556383 0.127852 0.327072 0.050484 0.427253 0.987653 -0.205996
2173 0.944505 0.579584 0.564470 0.569260 0.073822 -1.099948 -0.351303 0.043942 0.354724 -1.006891 -0.641075 0.097894 -0.029233 -0.524723 -0.247331 0.040292 0.035948 0.287586 -0.794997 0.804266 0.402815 0.249157 0.501288 0.327281 -0.464297 -0.063318 -0.218625 0.070411 0.606591 0.548199 -0.481338 0.759063 0.393316 0.286036 0.205425 1.089227 -0.279874 -0.259315 0.528888 0.384222 -0.046602 0.373396 0.981646 1.514083 -0.509390 -0.004103 -0.121466 -0.571829 0.664093 0.677416 -0.013946 -0.398425 0.223608 0.397211 0.141095 -0.306486 -0.341503 0.196475 -0.429949 -0.442007 0.133686 -0.005994 0.081122 0.406697
16519 -0.335375 0.220731 0.015728 -0.595787 0.603026 0.744720 -0.183205 -0.296157 0.200152 0.511366 0.591613 0.289127 -0.569532 0.039992 0.133956 -0.275782 -0.557430 -0.574783 0.939457 -0.017853 -0.145985 0.148261 -0.020303 0.306598 0.162990 0.882379 0.088379 0.493351 -0.462687 0.407625 -0.520418 -0.512586 -0.401612 0.700422 0.013598 -0.136760 -0.798018 0.112679 -0.747307 -1.093563 0.120931 -1.008173 -0.256219 -1.072790 -1.064192 -0.061148 -0.084763 0.625402 -0.225044 -0.591045 -0.104247 0.113585 -0.695284 -0.111411 0.135261 0.506412 -0.120568 -0.488914 -0.004424 -0.278722 0.097874 -0.733711 -0.145442 -0.750696
1160 0.199133 -0.869895 0.194188 0.022262 0.507913 -0.126495 -0.182047 0.122960 0.411909 0.435025 -0.302799 -0.417135 0.343757 0.405899 -0.021809 -0.187184 -0.763928 -0.191294 1.292943 0.627574 0.164852 0.228337 0.443784 -0.357805 0.098418 1.217713 -0.475577 0.317425 -0.707193 0.652729 -0.260213 -0.741092 -0.119536 0.993884 -0.463607 -0.648772 -0.237863 0.047831 -0.177594 -1.299286 -0.654280 -0.243886 -0.449919 0.239225 -0.368534 0.502752 0.192597 0.979117 -0.329927 0.937771 0.272324 -0.061821 -0.660900 -0.016222 -0.212871 0.333995 0.496514 0.405567 -0.151020 -0.667701 -0.051207 -0.390759 0.539925 -0.043986
651 0.885485 0.255722 0.809457 -0.704839 0.658475 0.430767 0.148676 -0.337186 0.318491 -0.373955 0.350944 0.621438 -1.097749 -0.841478 0.267254 -0.359987 -0.388344 0.392458 -0.650694 1.109964 0.336289 0.231108 0.547412 -0.007489 -0.474784 0.009199 -0.020957 -0.319900 -0.477036 0.235348 -0.913261 0.416425 -0.542246 -0.345566 0.374570 0.669868 -0.667960 0.217138 -0.872486 -0.176984 -0.720327 -0.103152 0.123085 -0.178708 -0.603040 -0.202021 -0.580289 0.029105 0.480393 -0.376026 -0.141717 -0.075973 0.201819 0.218338 0.080026 0.721061 0.124027 -0.700335 -0.362215 -0.192457 -0.151268 -0.460535 -0.881752 -0.312717
18573 0.159538 -0.786504 -0.903139 -0.257906 -0.159547 0.282638 0.430862 0.092033 -0.373287 0.623876 -0.038327 -0.197905 0.428789 -0.260273 0.926389 -0.766734 -1.225761 -0.172268 1.303420 -0.372282 0.588579 0.473080 -0.126348 0.106121 0.590330 0.143124 0.554669 0.139687 0.439126 -0.678824 0.143867 -0.511312 0.103107 0.174202 -0.066755 -0.969064 -0.082901 0.600898 -0.176978 0.101513 0.013749 -0.208399 -0.944917 -0.856386 -0.223056 0.578195 -0.615845 1.177941 0.125230 0.161505 0.451690 -0.135426 -0.567507 -0.537013 0.354741 -0.075571 -0.756574 0.347371 0.170069 0.320678 0.389027 -0.202775 0.865611 -0.119027
5777 -0.134761 -0.289960 -0.475202 0.502063 0.601098 0.067915 0.511187 0.128833 0.007236 -0.131281 -0.812537 -0.466168 0.189553 -0.434326 -0.250243 -0.189136 0.965890 0.954384 -0.118144 0.817213 0.171169 0.238839 -0.487506 0.770932 0.149467 -0.066075 0.083901 0.412415 -0.530953 -0.840907 -0.002980 0.744927 0.712196 0.340721 0.154400 -0.155825 0.023433 -0.353004 -0.087281 -0.895846 0.817136 -0.449942 0.150564 -0.803752 0.540225 0.971124 -0.409631 0.535844 -0.525328 0.481707 -0.115960 -0.836923 0.493593 0.780825 0.478824 0.505148 0.111374 -0.291868 -0.088909 -0.426300 0.444629 0.494432 0.478399 -0.035949
2200 0.099989 0.659573 0.463196 0.110352 -0.030377 -0.527640 -0.853750 0.084547 0.245498 -0.268412 0.308624 0.228929 0.148735 0.226185 -0.356645 -0.028128 -0.816854 -1.191198 0.860118 -0.360684 -0.278101 0.039028 0.347671 0.062072 -0.153295 0.748142 -0.207693 0.357657 0.987052 1.397248 -0.183012 -0.514247 -0.204314 0.929153 -0.063225 0.601663 -0.232275 -0.098971 0.212452 -0.360137 -0.105359 -0.358516 0.480649 0.894432 -1.024801 -0.776567 0.470509 -0.291730 0.403979 -0.052322 0.008859 0.378517 -0.882984 -0.269411 -0.192331 -0.511579 -0.609802 0.548443 -0.089230 -0.115185 -0.409999 -0.712363 0.219421 -0.252713
5790 -0.977984 -0.423875 -0.079492 0.219599 0.663651 0.579090 0.150785 -0.188161 0.193375 0.454475 0.217740 -0.579803 0.087706 0.753017 -0.359389 0.454012 0.930597 -0.588833 0.817348 -0.294415 -1.000147 -0.370447 -0.537660 0.280574 -0.212915 0.969856 -0.127044 0.381187 -0.898387 -0.070751 0.435187 -0.276546 -0.302813 0.001606 -0.040783 -0.452002 0.324497 -0.295936 -0.200586 -0.916849 0.448265 -0.795436 -0.132841 -0.650926 0.101481 0.136702 0.649622 0.125278 -0.641845 0.089552 0.370991 -0.047955 -0.376553 0.096230 -0.371686 0.310191 0.888874 -0.309197 0.330782 -0.076400 -0.008204 0.099740 0.156572 -0.365337
5791 0.037394 -1.158101 0.419266 -0.067054 1.053634 -0.036752 0.270212 -0.087120 0.575721 -0.203425 -0.386027 -1.287549 -0.123884 0.234071 -0.077737 -0.288131 0.374837 -0.531245 0.505563 0.536002 -0.320254 0.155993 0.330548 -0.485643 -0.970456 0.879204 -0.231310 -0.256334 -0.826021 0.454289 0.064374 0.027898 -0.604171 -0.511780 0.051668 -0.479083 0.413747 -0.253080 -0.580114 -0.487157 -0.965665 -0.075425 -0.254359 0.094872 0.364726 0.160553 0.069085 0.341073 0.174787 1.062688 0.914485 -0.151443 -0.054327 0.524783 -0.695215 0.889303 1.378082 -0.041523 0.087845 -0.139399 -0.020804 -0.040714 -0.157867 0.121122
11748 -0.496231 -0.081425 -0.788847 0.023604 -0.666562 0.593102 -0.226411 -0.574100 0.312284 1.015536 0.913305 -0.054847 -0.316781 0.747904 0.276284 -0.488993 -0.554507 -0.937501 1.413961 -0.721859 -0.297035 0.438233 0.037524 0.054189 0.530673 0.809021 -0.066231 0.220250 0.320794 -0.112065 0.083522 -0.874938 -0.478521 0.771902 -0.001157 -0.532366 -0.799735 0.449608 -0.357979 -0.291449 0.415670 -0.699656 -0.748286 -0.442626 -0.487223 -0.079777 0.054171 0.399595 -0.263888 -0.321254 0.082202 0.889523 -0.175609 -0.130961 -0.005419 -0.155377 -0.592241 0.295934 0.516251 0.098108 0.150008 -0.402688 0.142922 -0.367907
6819 -0.392599 0.316158 0.050116 0.207221 1.005174 0.197102 0.012350 0.453292 0.113192 -0.937237 -0.508787 -0.239655 0.378546 -0.386417 -0.267185 -0.142095 1.225875 0.158760 -0.317868 0.550281 -0.171520 -0.318914 -0.471751 0.011947 -0.534237 0.073072 0.262923 0.218009 -0.915158 -0.770124 -0.007795 0.394902 0.159474 0.281829 0.045396 0.440139 0.572730 -1.371978 -0.424550 -1.098254 -0.098240 -0.729616 0.697933 -0.456811 0.803035 -0.118340 0.421227 -0.356507 -0.300086 0.164820 -0.223198 -0.408406 0.242108 0.324720 0.423540 0.724879 0.645426 -0.186896 -0.062694 0.068382 -0.399654 0.706513 -0.040238 -0.675941
29351 0.136978 -0.000068 -0.098933 -0.488333 -0.060759 0.203991 0.113736 0.570775 -1.099183 0.018410 -0.039560 0.525008 0.397725 -0.716376 0.743669 -0.176221 -1.227142 0.461866 0.360367 -0.319234 0.977580 -0.204000 0.228131 -0.092019 -0.451023 -0.351256 0.534860 0.580510 -0.269407 -1.095225 -0.396446 -0.199956 0.511507 0.142293 0.201962 -0.721231 0.048964 -0.264474 -0.351670 0.419327 -0.485615 0.037158 -0.636546 -0.978539 -0.014147 0.523235 -0.762466 0.729116 0.293873 0.046352 -0.141659 -0.256741 -0.015519 -0.916363 0.760825 0.067937 -0.593713 -0.178002 0.145601 0.273120 0.062357 0.582900 1.070382 -0.550618
540 0.899519 -0.324568 0.599369 -0.714290 0.159849 0.517626 -0.060368 -0.526943 -0.129257 0.479806 0.066112 0.407725 -0.773771 0.052294 0.502564 0.201499 -0.678825 -0.470152 -0.290111 0.236174 0.113893 0.278389 0.527075 -0.142662 0.069919 0.305112 -0.142677 -0.030778 -0.319676 0.486494 -0.685109 -0.182657 -0.625480 -0.662464 0.636409 0.166460 -0.587013 0.851078 -0.865876 0.289008 -0.833069 -0.072373 -0.492343 -0.595937 -0.940504 -0.688681 -0.849081 0.831611 0.379431 -0.724790 -0.055194 0.079650 -0.190227 0.775717 -0.471032 0.091979 0.283791 -0.231694 -0.667513 0.211480 0.310624 0.000135 -0.527236 0.186073
5290 -0.051531 -1.021114 0.267291 -0.047888 0.923689 -0.393928 0.732738 0.033969 0.467814 -0.102550 -0.238639 -0.956678 0.517699 0.141255 -0.611752 -0.279493 0.523879 0.289979 0.194466 0.171613 -0.508415 -0.121154 0.108708 -0.361593 0.116513 0.641076 0.059325 -0.883754 -0.080888 1.102906 0.964979 -0.339153 -0.089727 -0.577861 -0.787566 -0.280257 0.385524 0.040073 0.685806 -0.318354 0.141614 0.240571 -0.112508 0.445880 0.219739 0.881784 -0.089624 0.216139 -0.123074 0.830532 0.957200 -0.470957 -0.906822 0.085618 -0.353073 -0.339193 0.655677 -0.301796 0.104804 -0.606493 0.391464 -0.490162 0.031867 0.637861
3758 -0.137071 -0.302647 0.261743 -0.356473 1.274820 -0.392133 0.213624 0.400670 -0.161040 -0.582473 -1.232542 -0.695593 0.687589 -0.191364 -0.332979 0.474170 0.764670 -0.138278 -0.240009 -0.803795 -0.323934 -0.256432 -0.092865 0.064957 -0.439965 0.437027 0.553505 0.945475 0.024976 0.263171 0.200361 -0.017888 0.612741 -0.087755 0.141901 0.173372 0.861787 -1.143875 0.065003 -0.539047 0.592027 -0.367833 0.239134 -0.560283 -0.307918 0.301363 -0.268630 0.333518 -0.149382 0.165241 0.486096 -0.671696 -0.754922 0.463623 0.042569 -0.262476 -0.025301 -0.201184 -0.393763 -0.021621 1.022621 0.583691 0.557768 -0.092551
29359 -0.934201 0.480717 -0.736953 0.602054 -0.709467 -0.309859 -0.831771 -0.197063 -0.242298 0.109969 0.053411 -0.670204 -0.197767 0.320836 -0.762015 0.393252 0.787748 -0.171291 -0.302789 -1.174828 -0.208117 -0.255867 0.070665 0.554419 -0.490177 -0.399577 -0.308004 0.621374 0.512400 -0.068758 0.143598 0.101421 0.351003 -0.635718 0.347140 0.414689 -0.243114 0.730886 0.354892 0.602489 1.188902 0.166657 0.357541 0.010742 -0.368014 -0.211489 0.680128 -0.283021 0.306086 -0.147808 0.123539 0.202277 0.757374 0.534589 0.127040 -0.342187 -0.130570 0.104070 0.274022 0.227567 0.487166 0.362513 0.027350 0.661146
177 -0.153651 0.929254 -0.483526 0.130842 -0.391401 0.137033 -0.749750 -0.052844 0.240414 -0.537452 0.184621 -0.084404 -0.662901 -0.437902 0.198301 -0.383092 0.194039 -0.812940 -0.227736 0.318333 0.267409 -0.101570 0.256300 -0.022231 -0.685039 -0.337030 -0.248719 0.508644 -0.003563 -0.481492 -0.907780 0.328507 -0.395027 0.157097 0.351473 0.756404 -0.203502 -0.137672 -0.835316 -0.156571 -0.482899 -0.109630 0.523817 -0.031081 -0.105603 -0.860794 0.577013 -0.279075 0.532650 -0.322958 -0.504158 0.648966 1.089906 0.358288 0.508503 0.811700 -0.119594 0.268970 0.196879 0.568399 -0.815501 0.332852 -0.353424 -0.673046
178 -1.055655 0.540475 -0.509821 -0.048310 0.571771 0.232571 -0.386479 0.321414 0.444862 -0.718804 0.177275 -0.637221 -0.655550 -0.326274 -0.330771 -0.802988 0.460967 -1.013957 0.471986 0.282975 -0.357660 -0.570980 -0.006109 0.023246 -0.977737 -0.036382 -0.027326 0.236696 -0.678903 0.056605 -0.461932 0.080292 -0.441836 0.092254 -0.020849 0.207671 0.546614 -0.337276 -0.657124 -0.750795 -0.598373 -0.361347 0.538562 -0.578479 0.555070 -0.460836 1.146888 -0.338743 0.033295 -0.017805 -0.287554 0.128861 0.304717 0.099170 0.260224 1.680668 0.614443 -0.204615 0.686693 0.250571 -0.897320 -0.310993 -0.404598 -0.942269
14007 -0.554972 0.274504 -0.906029 0.565403 -0.118766 0.149138 -0.232952 -0.210133 -0.171925 -0.380558 0.908847 -0.531578 0.627975 -0.565901 0.169824 -0.662462 0.599273 -1.001703 0.645813 0.205765 0.254632 -0.369061 -0.385904 0.284023 0.326011 0.054869 0.627508 -0.033142 0.197606 -0.905675 0.640537 -0.635667 -0.205724 -0.343664 -0.097233 0.420957 0.137180 -0.007511 -0.364082 -0.128688 0.175908 -0.636044 0.158170 -0.949690 -0.090571 -0.238403 0.154503 0.285741 0.844722 -0.366736 0.048534 0.097521 -0.056412 0.254555 0.668733 -0.342526 -0.395978 0.242939 0.162539 0.792048 -1.082918 0.685200 0.619460 -0.459103
4281 -0.535237 1.246454 -0.168700 -0.179695 -0.614179 0.254703 -0.263856 0.503614 -0.997421 -0.039132 0.837294 1.522904 0.215824 -0.395386 0.187461 0.201950 -0.313532 0.694415 -0.477241 -0.169231 0.322580 -0.405131 -0.798923 0.625740 0.703596 -0.948486 0.453246 -0.034344 0.597708 -0.533308 0.355186 0.179959 0.619413 0.240408 0.139237 0.266319 -0.364653 0.192245 0.469245 0.403050 0.849438 -0.238344 0.567696 -0.510279 -0.169835 -0.135418 -0.088363 -0.523840 -0.161791 -1.035158 -0.684942 -0.155720 -0.347926 -0.905230 0.954919 -0.301187 -0.894412 -0.392836 -0.155195 0.156200 -0.455710 -0.102606 -0.080589 -0.287814
4282 -0.377839 0.461099 -0.643626 0.372427 0.148249 -0.202627 0.053543 0.020692 0.648853 -0.165821 -0.603980 -0.500489 -0.786247 -0.159229 -0.942223 -0.357497 0.651455 0.606886 -0.100964 0.341020 -0.357599 0.054769 -0.100160 0.758465 -0.166278 -0.091502 -0.439633 0.393620 -0.204233 0.038102 -0.688668 0.859408 0.593216 0.699044 0.076698 0.114584 -0.040934 -0.113517 0.078768 -0.862068 0.952929 -0.193152 0.496854 -0.088792 0.296444 0.657329 0.599837 -0.097727 -0.736486 0.350804 -0.437970 -0.466835 0.742474 0.527932 0.080642 1.152102 -0.230278 -0.284343 0.526524 -0.820391 0.286166 -0.418635 0.090212 -0.149792
18619 0.437109 -0.123861 0.005785 0.627667 0.066248 -1.033205 0.161129 0.224090 0.941478 -0.684503 -0.820377 -0.803057 0.416634 -0.012464 -0.677263 -0.409871 0.499660 0.172154 0.061740 0.493941 -0.286138 0.195078 0.383426 -0.133210 -0.124306 0.258402 -0.404079 -0.458643 0.498186 0.815119 0.056927 0.345528 0.071979 0.420640 -0.746845 0.488791 0.254673 -0.395405 0.605919 -0.273093 0.188735 0.424365 0.717956 1.653119 0.397643 0.339066 0.396497 -0.317277 -0.169507 1.107793 0.217206 -0.186927 0.146884 0.085577 -0.418958 -0.280254 -0.137720 0.491217 0.355731 -0.583931 -0.048307 -0.344354 0.193860 0.409744
4285 -0.306464 0.532413 -0.650756 0.337895 0.126172 -0.207614 0.038723 0.022930 0.635464 -0.176046 -0.602183 -0.449715 -0.835363 -0.232552 -0.905313 -0.407213 0.557260 0.595333 -0.100217 0.370625 -0.307904 0.094394 -0.080358 0.796435 -0.148949 -0.127057 -0.426427 0.403026 -0.133364 0.053098 -0.767543 0.875085 0.589468 0.725713 0.113813 0.184556 -0.126518 -0.072121 0.035553 -0.836948 0.953316 -0.219058 0.524241 -0.119964 0.205093 0.618976 0.538275 -0.068555 -0.699443 0.299832 -0.485099 -0.475708 0.736270 0.513406 0.110068 1.158970 -0.326109 -0.272909 0.501279 -0.812091 0.298568 -0.460834 0.100207 -0.165893
17088 0.179302 -0.657965 0.058091 0.010204 -0.353371 -0.153031 -0.094266 0.009122 0.606930 -0.125010 0.341523 -0.919100 0.033814 0.078857 0.406631 -0.840077 -0.626877 -0.556651 0.514705 0.578462 0.566564 0.861406 0.480196 -0.902452 -0.396592 0.179690 -0.315860 -0.757449 0.173965 0.127567 -0.197042 -0.275059 -0.488086 0.045525 -0.442159 -0.484744 -0.388187 0.010805 -0.751952 0.073719 -1.170108 0.302371 -0.559794 0.715360 0.603811 -0.091556 -0.089018 0.163878 0.449300 0.849210 0.441624 0.595520 0.647586 -0.197910 -0.540079 0.614444 0.456962 0.773158 0.168149 0.213934 -0.422996 -0.278604 -0.601841 0.403718
3777 0.960963 -1.135463 0.814141 -0.392104 0.454358 -0.121300 0.972661 -0.282172 0.241076 0.647874 -0.182905 -0.047249 -0.217893 0.201147 -0.216252 -0.019211 -0.674067 1.012732 0.025047 0.286461 -0.005615 0.391502 0.079735 -0.244666 0.476645 0.415644 -0.113618 -1.107985 -0.152185 0.770103 0.409709 -0.060755 0.098999 -0.339161 -0.091478 -0.772399 -0.216208 0.557782 0.651129 0.298297 -0.289890 0.365958 -0.823662 0.321669 0.032687 0.862035 -0.792191 0.309637 -0.116535 0.662107 0.457818 -0.465776 -0.669659 -0.144643 -0.666706 -0.340033 0.474141 -0.260511 -0.326582 -0.710724 0.576305 -0.808531 0.128461 0.884529
1731 0.538569 -1.134164 0.313238 0.096555 0.072689 0.140728 0.574031 -0.671936 0.310511 0.156178 -0.134184 -0.776454 -0.395860 0.288465 0.131685 0.140789 0.790728 0.229420 -0.685323 0.563927 -0.127224 0.429224 0.315409 -0.385545 -0.307016 0.095764 -0.262310 -0.739357 -0.284195 -0.025590 0.305990 0.356211 -0.504543 -1.181123 0.341814 -0.194472 0.089067 0.340451 -0.327471 0.518571 -0.484099 0.511083 -0.386509 0.411204 0.390252 0.145415 -0.563686 0.019755 0.431194 0.481491 0.696350 0.080371 0.722137 1.085718 -0.758340 0.167013 0.949274 -0.207943 -0.227979 0.085500 0.413267 0.416148 -0.630279 0.735191
3780 0.942296 -1.216165 0.818193 -0.385118 0.441723 -0.070522 0.934356 -0.327172 0.171335 0.683610 -0.144474 -0.085861 -0.215277 0.242276 -0.139964 0.042574 -0.630293 0.948683 0.000571 0.279868 0.015950 0.387752 0.114641 -0.282407 0.432859 0.416771 -0.124436 -1.056866 -0.237990 0.712426 0.435223 -0.104025 0.043500 -0.462530 -0.020910 -0.770492 -0.204930 0.628047 0.570917 0.372692 -0.348373 0.391730 -0.877906 0.256840 -0.014511 0.822237 -0.823013 0.385082 -0.048857 0.623036 0.506104 -0.435602 -0.634461 -0.053141 -0.683115 -0.330021 0.555913 -0.265051 -0.366431 -0.628950 0.600039 -0.691262 0.110650 0.905089
29893 0.853450 -1.202073 0.342540 -0.267857 0.300688 -0.507759 0.537391 0.116659 0.041759 0.415941 -0.441044 -0.302016 0.741625 -0.127554 0.128481 -0.197417 -0.933775 0.450190 0.655568 0.162411 0.464199 0.485372 0.414168 -0.290974 0.489651 0.441932 0.051683 -0.298983 0.326578 0.528498 0.300903 -0.459022 0.205758 -0.028589 -0.395008 -0.745366 -0.204500 0.462886 0.487320 0.111926 -0.217957 0.446501 -0.804990 0.401753 -0.435627 1.051916 -0.847208 0.999080 0.091087 0.809716 0.660650 -0.361635 -0.914563 -0.221945 -0.150345 -0.762225 -0.071328 0.274720 -0.339495 -0.549506 0.575118 -0.436105 0.706620 0.709419
15905 0.272844 0.445526 -0.859859 0.621036 -0.988816 -0.242537 -0.732352 0.256493 0.058938 0.169716 -0.246188 0.221108 0.280229 0.130916 0.503737 -0.602238 -1.066251 -0.612561 1.118905 -0.291866 0.399817 0.190850 0.434696 0.108632 0.086899 0.151557 -0.194849 1.039944 0.665007 -0.499551 -0.599892 -0.267510 -0.031960 1.408508 0.221923 0.198213 -0.505404 0.192765 -0.063000 -0.298961 0.032773 -0.127910 0.133770 0.718630 -0.536129 -0.344792 0.529000 0.350125 -0.021906 0.273799 -0.331852 0.802428 0.228886 -0.329935 0.825292 -0.153997 -1.282172 1.023936 0.340348 0.173535 -0.020305 0.002956 0.945018 -0.549254
11465 -0.268011 -0.270823 0.464577 -0.565151 0.695839 0.548666 0.114235 -0.392294 -0.196944 0.737897 0.611078 0.569731 -0.792367 0.500914 -0.174660 0.153828 -0.720106 0.138875 0.327058 0.232872 -0.145122 -0.078164 0.087944 0.284007 0.429314 0.982959 0.016491 -0.043474 -0.879458 0.787646 -0.084704 -0.540807 -0.100177 0.119576 0.099521 -0.515826 -0.444996 0.581711 0.131535 -0.595478 0.004004 -0.571674 -0.434237 -0.909231 -0.754520 0.415260 -0.233437 0.343418 -0.374280 -0.370536 0.104990 -0.430436 -1.165884 0.062631 -0.163345 0.397025 0.507274 -0.797340 -0.391543 -0.684816 0.299877 -0.712344 -0.193158 -0.126685
5322 0.186043 1.195464 -0.121625 -0.111726 -0.312758 -0.180772 -0.448657 0.196033 -0.471095 -0.074398 -0.274729 0.982283 0.392197 -0.494476 0.123156 0.388847 -0.477563 0.011932 -0.291429 -0.781515 0.322472 -0.133399 -0.097094 0.302106 0.488674 -0.388798 0.533224 1.068853 0.822166 -0.325460 -0.404116 -0.113145 0.676074 0.774841 -0.025239 0.686357 -0.214069 -0.499681 0.317035 0.010329 0.749304 -0.204780 0.261789 -0.332737 -0.804330 -0.300795 -0.282815 -0.057310 -0.039169 -1.041882 -0.741894 0.122212 -0.283030 -0.308362 0.813494 -1.064606 -1.536042 0.196405 -0.359856 0.178146 0.379153 0.325326 0.492114 -0.524638
5837 -0.366529 0.212171 0.063490 -0.631726 0.645246 0.780146 -0.126260 -0.296382 0.210892 0.495101 0.633875 0.304812 -0.588084 0.048833 0.125663 -0.255891 -0.510070 -0.559871 0.892190 -0.013375 -0.185248 0.117921 -0.046982 0.292448 0.158775 0.876608 0.103124 0.414826 -0.515670 0.428309 -0.474182 -0.497378 -0.421976 0.646611 0.004646 -0.150728 -0.748515 0.077766 -0.734948 -1.086568 0.102565 -1.017375 -0.260982 -1.085491 -1.017777 -0.054095 -0.067429 0.568752 -0.239091 -0.610413 -0.095543 0.078097 -0.733682 -0.154594 0.106467 0.513632 -0.038397 -0.547956 -0.008479 -0.289312 0.062763 -0.760795 -0.209830 -0.751469
29902 0.285911 0.217542 -0.508224 0.082117 -0.033047 -0.048741 0.990915 0.006193 0.837134 -0.200306 -0.069310 -0.211393 -0.734129 -0.436197 -0.289079 -1.095988 0.042800 0.914412 0.300471 0.596809 0.042013 1.076874 -0.378833 0.741449 0.570554 -0.196848 0.101029 -0.821208 0.546523 -0.133722 -0.411693 0.935367 0.396010 0.754732 -0.270481 -0.093702 -0.377758 -0.233410 -0.077348 -0.301839 0.985633 -0.420715 0.109186 -0.130993 0.891141 0.710576 -0.443862 -0.298394 -0.551697 0.396419 -0.309757 -0.643360 0.508380 -0.228768 -0.471680 0.686848 -0.754195 -0.308443 0.463132 -0.631553 0.224525 -1.000510 -0.125604 0.052541
11471 -0.280350 -0.315856 0.485320 -0.583128 0.736835 0.514700 0.102463 -0.375349 -0.210162 0.720668 0.590701 0.532723 -0.701859 0.499402 -0.174143 0.191557 -0.684039 0.100772 0.326172 0.200725 -0.144999 -0.080131 0.092754 0.259404 0.411417 1.010495 0.044416 0.017751 -0.854228 0.826207 -0.034119 -0.585175 -0.081151 0.086558 0.094234 -0.499637 -0.429699 0.537091 0.120282 -0.609230 0.026625 -0.567468 -0.449087 -0.915376 -0.794983 0.421006 -0.260113 0.363703 -0.335166 -0.374270 0.164321 -0.427058 -1.228903 0.085034 -0.141812 0.322496 0.524074 -0.775580 -0.420153 -0.667384 0.336903 -0.665467 -0.170650 -0.116220
29646 0.429958 -0.175518 -0.502480 0.251851 -0.918100 -0.208607 -0.469408 0.400296 -0.058038 -0.045613 -0.665166 -0.388168 0.563126 -0.221560 0.850470 -0.253272 -0.649111 -0.496046 0.364559 0.069228 0.821614 0.629265 0.596971 -0.510405 -0.331587 -0.452164 -0.243621 0.592173 0.463204 -0.899344 -0.891607 0.057425 -0.008980 0.522498 0.008293 -0.184674 -0.267435 -0.087384 -0.774593 0.171723 -0.831826 0.380402 -0.215289 0.578943 0.160932 -0.367617 -0.207077 0.766504 0.298122 0.289281 -0.272757 0.715821 1.155098 0.049534 0.194376 0.084532 -0.509130 1.208277 0.019821 0.622936 -0.021563 0.771827 0.274382 -0.017278
5583 -0.482675 -0.847681 0.269150 -0.081021 1.011153 0.295501 0.574836 -0.486662 0.184778 0.211140 0.230727 -0.624373 -0.367773 0.300850 -0.608214 0.161128 1.022229 0.450409 -0.154102 0.490133 -0.520903 -0.208464 -0.257074 0.114643 -0.037636 0.653658 -0.109924 -0.454355 -1.116302 0.409335 0.719055 -0.096982 -0.054227 -0.800520 0.000456 -0.298836 0.212672 0.180860 0.031282 -0.453133 0.263284 -0.242467 -0.225238 -0.784842 0.218246 0.685124 -0.067633 0.099928 -0.203442 0.279030 0.552913 -0.631727 -0.396083 0.722427 -0.353468 0.558444 1.264941 -0.885174 -0.061237 -0.492847 0.292824 -0.148537 -0.335048 0.331816
29136 -0.462078 0.199948 -0.441716 -0.334774 0.629354 0.175576 0.631471 0.492244 0.398748 -0.127883 0.325792 0.018017 -0.178710 -0.607368 -0.289524 -1.144605 -0.643706 0.489207 0.852790 0.316967 0.032872 -0.000686 -0.439774 0.346192 0.469744 0.193511 0.476201 -0.577164 0.016131 0.333074 0.030350 0.017168 0.373498 0.847695 -0.668633 -0.549380 -0.034285 -0.324161 0.369698 -0.876391 0.315032 -0.565248 -0.061260 -0.625259 0.447812 0.965426 0.129131 -0.003850 -0.628842 0.255981 -0.047157 -0.677139 -0.882169 -1.011344 0.300779 0.692544 -0.488273 -0.545451 0.455451 -0.618384 -0.342715 -1.347138 0.181153 -0.441291
5926 -0.395161 0.967324 -0.915712 0.048049 -1.265649 0.245144 -0.555556 0.332633 -0.379864 0.041578 0.288151 0.805734 0.469385 -0.180456 0.732726 -0.123719 -0.552145 -0.324065 0.281293 -0.734707 0.462553 0.149926 -0.266856 0.197996 0.488252 -0.921616 0.188500 0.666631 0.803302 -0.955243 -0.392148 0.092516 0.233214 0.761878 -0.176723 0.008102 -0.283452 -0.134170 -0.162358 0.371673 0.429249 -0.011710 0.167641 -0.077426 0.052779 -0.628986 0.254036 -0.083511 -0.310331 -0.837511 -0.621689 0.433316 0.415536 -0.846789 0.409460 -0.329569 -1.274601 0.360579 0.218610 0.631678 -0.267136 0.207700 0.090993 -0.479232
231 0.809156 -0.202644 -0.309446 0.234301 -0.074776 -0.837701 0.042954 0.591772 0.440647 -0.526268 -0.830623 -0.406216 0.500051 -0.805858 0.291870 -0.951458 -0.834308 0.402643 0.580768 0.558633 0.812404 0.598596 0.437480 -0.006752 -0.124083 -0.109901 -0.062090 0.175188 0.631350 -0.036824 -0.584926 0.251825 0.449861 0.905784 -0.417132 -0.038357 -0.222533 -0.238909 0.179162 -0.121924 -0.231688 0.421528 0.019217 0.993011 0.055177 0.807805 -0.233146 0.457739 0.075789 1.166376 0.036377 -0.307260 0.156209 -0.521378 0.330126 -0.044057 -0.789697 0.608114 0.201238 -0.312309 0.080914 -0.316926 0.767238 0.163208
236 0.351086 0.665832 0.156707 0.130017 -0.306654 -0.470380 -0.055497 0.582696 -0.873075 -0.527534 -0.504458 0.867040 0.511699 -0.741166 0.114391 0.463677 0.128212 1.203333 -1.269307 0.101845 0.590182 -0.290057 -0.252431 0.392401 0.098619 -1.136046 0.283032 0.202844 0.441327 -0.555827 0.077625 0.723978 0.874889 -0.298366 0.331398 0.516818 0.049908 -0.004254 0.679961 0.714561 0.490594 0.542233 0.675849 0.284443 -0.060493 0.129863 -0.307028 -0.281558 0.150758 -0.213162 -0.376733 -0.517089 0.195563 -0.259144 0.757379 -0.530684 -0.564073 -0.177747 -0.450215 0.043431 0.182217 0.569374 0.216008 0.345388
2258 0.181086 -0.613408 0.388494 0.324868 0.004315 0.181382 -0.086531 0.345809 0.176198 -0.134347 -0.575170 -0.438330 0.987615 0.294774 0.407830 0.237820 0.601821 -0.086292 0.102792 0.503927 0.189885 0.642329 -0.039466 -0.748224 -0.307025 0.347343 -0.325599 0.131208 -0.566453 -0.929456 -0.303685 -0.013579 -0.141827 0.593478 -0.241413 -0.296033 -0.026356 -1.219490 -0.936580 -0.879706 -0.787045 -0.332643 -0.134388 0.611453 0.692125 -0.206836 -0.119637 0.236471 -0.418008 0.522582 -0.017717 0.474900 0.829110 0.066545 -0.218270 0.038021 0.654839 0.914418 -0.237004 0.264758 -0.063043 1.025927 -0.234802 0.015362
6383 -0.023533 -0.030879 0.722743 -0.460337 0.961715 -0.403888 -0.015670 0.703040 -0.043102 -1.070540 -0.107318 -0.197363 -0.319841 -0.935739 -0.034456 -0.629452 -0.403902 -0.274000 -0.508560 0.756941 0.336760 -0.356762 0.357955 -0.431803 -1.063899 -0.561636 0.191771 -0.533065 -0.326825 0.634375 -0.299158 0.284454 -0.286385 -0.826590 0.062799 0.193725 0.623350 0.048047 -0.090483 0.293677 -1.368636 0.612916 0.166175 0.055963 0.478575 -0.059696 0.065143 -0.331134 0.645681 0.232034 0.048250 -0.273531 -0.198327 -0.087393 0.312783 0.823676 0.881862 -0.196027 -0.129695 0.170440 -0.746054 -0.422468 -0.603956 -0.010576
3112 -0.543328 0.286357 -0.893454 0.554305 -0.087072 0.162051 -0.240998 -0.202458 -0.206153 -0.416950 0.860080 -0.527246 0.622479 -0.586534 0.173914 -0.624451 0.645261 -0.990815 0.559983 0.202008 0.262817 -0.402740 -0.382950 0.264585 0.263378 0.025885 0.624447 -0.002045 0.155243 -0.935414 0.609866 -0.621546 -0.216205 -0.383659 -0.077472 0.439303 0.165649 -0.020911 -0.395566 -0.113326 0.150207 -0.614001 0.173404 -0.966496 -0.066618 -0.263039 0.154103 0.272281 0.841360 -0.389465 0.032726 0.103937 -0.013524 0.288649 0.692495 -0.337263 -0.346117 0.239300 0.144610 0.833136 -1.064561 0.758841 0.598907 -0.478859
4338 0.096251 0.379026 -0.369161 -0.016285 0.398034 -0.521568 -0.043880 0.767180 -0.178422 -1.133453 -0.630851 -0.285026 -0.236372 -1.390226 0.047562 -0.668304 -0.138272 0.517855 -0.462775 0.392726 0.765283 -0.373266 0.270939 0.385194 -0.953507 -0.873635 0.338569 0.486128 0.007303 -0.492185 -0.832554 0.975388 0.567343 -0.357456 0.102523 0.410166 0.471742 -0.069718 -0.015958 0.265145 -0.168649 0.484613 0.600778 -0.083769 0.105072 0.568446 0.189569 0.095060 0.493473 0.444838 -0.053254 -0.913016 0.446999 -0.305597 0.840651 0.818333 -0.380000 -0.385661 0.276587 -0.010454 -0.093626 0.032459 0.457831 -0.199130
1780 0.348346 0.450515 -0.034859 -0.071069 -0.559831 -0.308399 -0.157735 0.582730 0.254657 -0.561096 0.231415 0.303449 0.059197 -0.955846 0.380262 -0.865687 -0.858086 0.339368 -0.273490 0.951730 0.991236 0.432195 0.289206 -0.426688 0.010556 -0.985302 0.041749 -0.581569 0.585813 -0.269617 -0.646356 0.246134 0.024258 0.321440 -0.571085 0.121627 -0.483780 0.076269 -0.244832 0.187672 -0.756687 0.567087 -0.012590 0.636771 0.571782 0.184605 -0.222999 -0.028818 0.277455 0.092042 -0.585688 0.276361 0.721263 -0.650206 0.583098 0.165334 -0.497653 0.506829 0.096224 0.058222 -0.818507 -0.338323 -0.508530 0.043533
1781 -0.765800 0.298436 -0.335293 -0.093677 0.495560 0.079312 -0.163906 0.135315 0.844411 -0.559220 0.671855 -0.599349 -0.444521 -0.203868 -0.213307 -1.187007 -0.273421 -1.011700 1.296532 0.274356 -0.343089 0.099302 -0.118690 0.106214 -0.396311 0.672817 0.113566 -0.220174 0.099480 0.538208 -0.240433 -0.202434 -0.351272 0.771456 -0.418780 0.045766 0.081463 -0.477586 -0.410076 -0.882120 -0.203779 -0.859259 0.231017 -0.209261 0.269488 -0.150433 0.721277 -0.259131 -0.004027 0.307030 0.185458 -0.084075 -0.416394 -0.407868 -0.159540 1.074533 -0.087401 -0.123063 0.651208 -0.118780 -0.766200 -1.057270 -0.200981 -0.792080
9466 0.785939 -1.244725 0.389072 -0.281572 0.290547 -0.493463 0.488880 0.069765 0.049819 0.476747 -0.403337 -0.287820 0.730380 -0.049178 0.114738 -0.129167 -0.907695 0.452130 0.610346 0.095748 0.463434 0.495370 0.444883 -0.369813 0.494194 0.465736 0.034328 -0.249834 0.265046 0.526542 0.327953 -0.541275 0.196756 -0.006484 -0.438468 -0.798450 -0.216761 0.436829 0.495044 0.078800 -0.228989 0.478800 -0.863275 0.419296 -0.449442 1.077975 -0.829545 0.946524 0.038560 0.795646 0.666643 -0.281781 -0.947088 -0.215392 -0.147387 -0.785178 0.011744 0.264037 -0.351891 -0.571611 0.633910 -0.430076 0.631465 0.697841
2299 -0.528595 0.396329 -0.534504 0.990344 -0.937960 -0.222586 -0.798568 0.483315 -0.643895 -0.166355 -0.215688 0.059243 1.008749 0.416817 0.247900 0.465925 0.524442 -0.455553 0.192255 -0.018511 -0.099523 -0.464498 -0.083769 0.206444 -0.334764 -0.440579 -0.478973 0.809128 0.002712 -0.838158 0.247387 0.265262 -0.204489 0.117911 0.511913 0.368383 0.206799 0.080520 -0.164616 0.058531 0.071381 0.031102 0.792004 0.624417 0.155564 -0.898238 0.891122 0.042764 -0.032971 0.170720 -0.193560 0.551763 0.843853 0.251033 0.565045 -0.033620 -0.008712 0.843888 0.118935 0.573450 -0.629699 1.196264 0.445284 -0.170985
6442 0.833348 -1.141801 0.600113 -0.318515 0.766752 -0.335519 0.612217 0.290526 -0.427790 -0.542666 -0.895659 -0.689801 0.474428 -0.558199 0.399900 0.149148 0.092293 0.481741 -0.605857 0.164742 0.477856 -0.011888 0.388131 -0.549884 -0.733958 -0.131869 0.385770 -0.112355 -0.242163 -0.309559 0.210880 0.348005 0.130447 -1.142056 0.277422 -0.226353 0.874936 -0.372347 -0.142621 0.671158 -0.860076 0.690141 -0.201821 0.170437 0.266293 0.329111 -0.712404 0.396856 0.702842 0.807696 0.846006 -0.645277 -0.044002 0.173081 -0.226311 0.101732 0.506166 -0.108201 -0.412094 0.343055 0.426815 0.714723 0.368397 0.431166
25343 0.485727 -0.174130 -0.489574 0.251542 -0.879342 -0.200900 -0.485686 0.360613 -0.021156 -0.051869 -0.718004 -0.416656 0.495371 -0.199656 0.822686 -0.247611 -0.618999 -0.495845 0.346938 0.091113 0.796513 0.611815 0.637067 -0.493321 -0.396966 -0.415588 -0.289658 0.643424 0.433969 -0.859399 -0.938202 0.077938 -0.029111 0.512720 0.055545 -0.133219 -0.270805 -0.081496 -0.798261 0.142567 -0.823365 0.382517 -0.190262 0.585491 0.094436 -0.392977 -0.191225 0.771279 0.311167 0.317614 -0.249392 0.693042 1.176652 0.143322 0.159599 0.113724 -0.496905 1.178972 0.007206 0.600652 0.014733 0.765986 0.274728 -0.024295
14081 -0.505066 -0.417309 -0.611284 -0.259852 -0.369314 1.020917 0.325622 -0.702293 0.663217 0.637065 0.880425 -0.338760 -0.682740 0.361652 0.079198 -0.589629 0.207112 -0.338995 0.485672 0.324746 -0.349810 0.252015 -0.147972 -0.170536 0.297186 0.267881 -0.260393 -0.682051 -0.381131 -0.572728 0.208423 -0.387425 -0.749335 -0.018815 -0.168046 -0.498650 -0.281625 0.202065 -0.424453 -0.377675 -0.074652 -0.329794 -0.639446 -0.705457 0.590329 0.045271 0.066352 -0.013419 -0.235831 -0.281887 0.129532 0.566236 0.372900 0.139574 -0.202791 0.672127 0.431377 -0.221471 0.655100 0.111569 -0.172495 -0.339073 -0.527885 -0.395936
16130 -0.960183 0.940491 -1.037642 0.165388 -0.441905 0.447794 -0.742036 0.344392 0.037794 -0.124599 0.293462 0.031366 -0.180412 -0.100619 0.217077 -0.519538 -0.101213 -0.967651 0.865916 -0.162291 -0.063056 -0.333999 -0.122956 0.221707 -0.309648 -0.177551 -0.065986 0.891999 -0.226236 -0.685736 -0.715059 -0.121149 -0.196155 0.904367 -0.066820 0.124621 0.005573 -0.180820 -0.733253 -0.754625 -0.047334 -0.572607 0.310535 -0.647647 0.071625 -0.595206 0.951260 0.118928 -0.281079 -0.416559 -0.667002 0.490687 0.594228 -0.373135 0.634138 0.958208 -0.508775 0.278925 0.752602 0.411592 -0.816565 0.090858 0.185715 -1.118691
18677 -0.236759 0.048723 -0.135441 -0.336224 0.667208 0.550345 0.045109 -0.383339 0.007205 0.351772 -0.518809 -0.112597 -0.002098 0.191736 0.059319 0.453591 0.749442 -0.427733 0.132032 -0.627665 -0.489735 -0.132764 -0.101804 0.335195 -0.039063 0.780490 0.329934 1.272840 -0.441631 -0.329258 -0.237164 -0.253722 -0.000379 0.197809 0.355876 0.199503 -0.163778 -0.601726 -0.623453 -0.847418 0.776779 -0.940926 -0.163518 -1.284830 -0.900401 -0.023608 -0.416294 0.606721 -0.365193 -0.684651 0.000662 0.108949 -0.278663 0.813213 0.276544 -0.178979 -0.247174 -0.380287 -0.165222 0.082635 0.975518 0.657746 0.237485 -0.689231
5380 0.149493 -0.057560 -0.007964 0.292869 -0.039050 0.259538 -0.530312 -0.375212 0.271422 -0.253114 -0.364233 -0.647881 -0.433958 0.227447 0.140256 0.274575 0.918677 -0.807675 -0.342011 0.445057 -0.241612 -0.066125 0.495728 -0.260359 -1.120584 0.137878 -0.541787 0.613231 -0.548747 -0.285177 -0.579264 0.338564 -0.728723 -0.446900 0.640362 0.604170 0.067917 -0.043525 -1.061033 -0.199804 -0.733883 -0.020771 0.421202 0.302451 -0.109601 -0.941751 0.356433 0.152740 0.496083 0.136169 0.116068 0.587921 1.202580 1.246406 -0.247289 0.739867 0.731245 0.221018 -0.004512 0.532036 -0.168926 0.921846 -0.467987 -0.241978
2311 0.993826 -0.941835 0.068172 0.121592 -0.731757 -0.405192 0.022887 0.057088 -0.413812 0.439968 -0.642497 -0.213357 0.833843 0.270282 0.753198 0.185559 -1.022439 -0.194957 0.542371 -0.270269 0.563220 0.668608 0.559153 -0.407196 0.168176 0.027860 -0.124711 0.235660 0.624740 -0.242722 -0.136730 -0.181756 -0.057816 -0.048767 0.134861 -0.532990 -0.119118 0.503357 -0.081679 0.736518 -0.503135 0.632720 -0.718473 0.644210 -0.392572 0.032736 -0.786191 1.008089 0.412255 0.463273 0.449539 0.359351 0.082417 0.009951 -0.332273 -0.878848 -0.434116 0.982356 -0.268342 0.247528 0.532256 0.483414 0.783726 0.602932
6408 0.035352 0.017835 0.701496 -0.449700 0.955064 -0.422012 -0.033383 0.727395 -0.051529 -1.114703 -0.110661 -0.169624 -0.334095 -1.010071 0.002713 -0.677168 -0.455280 -0.278890 -0.493902 0.809891 0.381118 -0.354012 0.380101 -0.396147 -1.085775 -0.592533 0.191039 -0.499222 -0.295089 0.627701 -0.355163 0.329606 -0.265868 -0.788583 0.080680 0.248939 0.606226 0.054503 -0.102519 0.302984 -1.376839 0.605236 0.216749 0.069187 0.429361 -0.084691 0.054953 -0.328690 0.697174 0.238650 0.023903 -0.298480 -0.195245 -0.106393 0.364743 0.849967 0.810233 -0.195688 -0.139187 0.180601 -0.790473 -0.434298 -0.555670 -0.050688
5897 -0.401907 -0.051250 0.644678 -0.130499 0.699822 0.226576 0.044619 -0.465917 0.135766 -0.233175 0.345627 -0.253813 -0.903805 0.181865 -0.684251 0.384881 1.124501 0.053868 -1.014943 0.193057 -0.600625 -0.401053 -0.039959 0.066937 -0.633612 0.209144 -0.199031 -0.394955 -0.774638 0.593877 0.257376 0.208465 -0.298430 -1.186442 0.458644 0.433432 0.014134 0.224772 -0.111362 0.144773 0.032293 -0.075574 0.231355 -0.324876 0.018506 -0.155717 0.114070 -0.582258 0.179141 -0.203960 0.254269 -0.228213 0.103016 0.889347 -0.355098 0.494447 1.256477 -0.904975 -0.231018 -0.132425 0.159795 -0.023931 -0.970592 0.396866
29456 0.474481 -0.212578 0.380740 0.341512 0.566561 -0.578451 -0.404450 -0.103236 0.859697 -0.732530 -0.707589 -0.971084 -0.111083 0.135199 -0.494126 -0.142170 0.647824 -0.323334 0.102975 0.596469 -0.282669 0.311515 0.677674 -0.237187 -0.926780 0.812889 -0.620881 0.186592 -0.367832 0.581593 -0.612431 0.367965 -0.241984 0.421368 0.015818 0.672578 0.070324 -0.695144 -0.551281 -0.809311 -0.537330 -0.126595 0.666112 1.101315 -0.148703 -0.297984 0.524074 -0.191734 0.206373 1.031916 0.309241 -0.021311 0.422730 0.692301 -0.512342 0.748005 0.664534 0.415810 0.023171 -0.405836 0.036776 0.041038 -0.095987 -0.056095
5592 -0.519471 -0.889766 0.208541 -0.062557 0.955505 0.295743 0.566724 -0.521224 0.191041 0.269826 0.275450 -0.673131 -0.326087 0.362027 -0.606073 0.150928 1.005048 0.391479 -0.060612 0.439473 -0.534837 -0.224452 -0.234508 0.105909 0.006346 0.671266 -0.117787 -0.456317 -1.113812 0.405091 0.766541 -0.184411 -0.074539 -0.792315 -0.041399 -0.351134 0.204099 0.256524 0.039921 -0.456465 0.277973 -0.220487 -0.258126 -0.810092 0.173688 0.709767 -0.034587 0.164899 -0.215945 0.274322 0.563289 -0.604529 -0.421795 0.720203 -0.368414 0.532634 1.245149 -0.841628 -0.024923 -0.503143 0.279360 -0.160951 -0.299195 0.327599
1810 -0.785035 0.235865 -0.332436 -0.100719 0.502659 0.136504 -0.122523 0.107639 0.852865 -0.521516 0.705975 -0.591285 -0.472022 -0.162357 -0.217481 -1.185302 -0.237747 -0.951720 1.258323 0.298327 -0.351145 0.078064 -0.132042 0.089584 -0.360501 0.676347 0.119618 -0.263486 0.019666 0.524163 -0.197955 -0.245137 -0.381621 0.728680 -0.429382 0.016433 0.061938 -0.439424 -0.394809 -0.899976 -0.212956 -0.849603 0.180049 -0.249518 0.287731 -0.117685 0.719196 -0.247808 -0.032202 0.322485 0.213302 -0.086307 -0.423480 -0.383389 -0.159012 1.086407 -0.032633 -0.164140 0.640598 -0.141928 -0.747356 -1.074065 -0.246595 -0.764236
1811 -0.137124 0.493173 0.272847 -0.071370 1.088419 -0.176360 -0.088097 0.369718 -0.036983 -1.217962 0.600963 -0.121771 0.531296 -1.244111 -0.060566 -0.730327 0.117060 -0.653617 0.206304 0.352514 0.307510 -0.225175 -0.324643 0.231040 -0.278949 0.326953 1.021095 -0.249282 0.615129 0.134712 0.417686 -0.209896 0.079005 -0.136380 -0.013263 0.754726 0.202479 -0.870580 0.007064 -0.267213 -0.123936 -0.857538 0.541945 -0.493530 -0.284176 -0.112225 -0.287473 -0.256845 0.994373 -0.138687 0.357650 -0.473808 -1.004243 -0.153937 0.692222 -0.317932 -0.458608 -0.274998 -0.397422 0.387029 -0.762726 -0.084185 0.246546 -0.490828
18709 -0.403785 -0.400587 0.241550 -0.222437 0.769859 -0.430402 0.387230 0.294469 0.422396 -0.811185 0.044396 -0.716023 1.005647 -0.201246 0.126227 -0.198483 0.395128 -0.605835 0.563719 -0.443404 -0.437076 0.594196 -0.485857 0.174470 -0.109616 0.666499 0.680825 0.027601 1.210433 0.345384 0.758470 0.053273 0.298914 0.197557 -0.239096 -0.101741 0.558723 -1.521196 -0.018420 -0.107170 0.644465 -0.558474 -0.004272 0.237148 0.023745 0.554662 -0.566124 -0.413789 0.011387 0.468140 1.053423 -0.445259 -1.007594 -0.259424 -0.481773 -0.472579 -0.422218 -0.127725 0.137174 0.029739 0.407869 -0.235465 -0.011374 -0.020094
18710 -0.083623 -0.035325 0.014392 -0.310242 0.023908 0.153099 -0.364024 0.479588 -1.117498 -0.467283 -0.740511 0.290513 0.887824 -0.111645 0.918711 0.906472 0.582131 -0.019889 -0.373753 -0.206330 0.017902 -0.543935 -0.052315 0.164531 -0.873230 -0.413159 0.180502 1.302676 -0.415273 -0.893334 -0.008766 0.500503 0.082868 -0.511540 0.730564 0.176050 0.526388 -0.442947 -0.658477 0.397563 -0.063470 0.117130 0.625777 -0.462203 -0.521924 -0.527593 -0.175744 0.434116 0.172697 -0.225343 0.171454 -0.149413 0.198515 0.208386 0.324426 0.301242 0.082772 -0.233657 -0.292063 0.662112 0.289880 1.387331 0.284220 -0.361912
6423 -0.133381 0.066672 -0.185214 -0.122760 -0.993258 0.080093 -0.474954 0.190353 -0.793695 0.862504 0.084512 0.489670 0.994928 0.614108 0.487959 0.702117 -1.062314 -0.522338 0.901263 -1.151092 0.149997 0.164773 0.075693 -0.114900 0.485997 0.131015 -0.002508 0.627074 0.707200 -0.279331 0.059924 -0.866214 0.139237 0.661862 -0.243401 -0.662914 -0.281061 0.132064 0.014203 0.331862 0.192632 -0.151973 -0.685178 -0.163411 -0.402288 -0.215768 -0.373448 0.626949 -0.141410 -0.419622 -0.196857 0.558654 -0.216284 -0.616540 0.013794 -1.221169 -0.820794 0.782422 -0.026026 0.368005 0.096565 0.510950 0.726914 -0.008518
5913 0.469420 -1.014780 0.029907 -0.275402 0.792860 0.303920 0.262368 -0.495189 0.201539 -0.017481 -0.329800 -0.965916 -0.333745 -0.161233 0.574113 -0.255429 0.329536 -0.485573 0.664385 0.673226 -0.038651 0.131979 0.460316 0.133678 -0.942844 0.858252 -0.112864 0.491488 -0.878184 -0.242678 -0.337050 0.238902 -0.638827 -0.581157 0.592815 -0.008422 -0.041336 0.131731 -1.109299 -0.185080 -0.613507 -0.311862 -0.137846 -0.572488 -0.669446 0.065557 -0.464803 0.937341 0.674066 0.610056 0.797634 -0.171489 0.137698 0.857933 -0.244262 0.971816 0.666064 -0.315458 -0.010777 0.151569 0.333098 0.413152 0.307239 -0.315527
4911 -0.511616 -0.608718 -0.297511 0.276031 -0.490926 -0.315570 -0.320334 0.497880 -0.244695 -0.035433 -0.219813 -0.877271 0.666109 0.399243 0.315440 -0.120027 -0.291970 -1.181754 0.568684 -0.338939 0.067702 -0.114307 0.250027 -0.848642 -0.528336 -0.388685 -0.171789 -0.039073 0.175260 -0.161831 0.295821 -0.359888 -0.452378 -0.415668 -0.145244 -0.681349 0.869008 0.212498 -0.123053 0.594630 -1.196339 0.754747 -0.440015 0.425595 0.952975 -0.502015 0.447737 0.128895 0.361301 0.366811 0.194579 0.725128 0.422151 0.017051 -0.188146 0.105789 0.649224 1.089517 0.348463 0.830572 -0.590795 0.491066 0.112986 0.200915
284 -1.005784 0.524114 -0.524151 -0.036445 0.568596 0.244673 -0.391647 0.315255 0.428078 -0.749924 0.170083 -0.651563 -0.594575 -0.379461 -0.259591 -0.855078 0.439984 -1.047246 0.522579 0.331816 -0.309152 -0.567784 -0.012851 0.050561 -0.992744 -0.003157 0.009258 0.301752 -0.648732 0.008862 -0.440469 0.081081 -0.447554 0.145736 -0.001501 0.270121 0.535197 -0.378566 -0.700751 -0.756235 -0.625227 -0.407498 0.549018 -0.589707 0.522619 -0.487879 1.102089 -0.287373 0.087788 0.009038 -0.248447 0.111628 0.306268 0.131458 0.298312 1.658398 0.563660 -0.197538 0.662353 0.292724 -0.888934 -0.259430 -0.319687 -0.975520
285 -0.085832 -0.828530 0.098878 -0.146589 -0.512674 0.397761 0.047747 -0.807872 -0.016477 1.053763 0.958695 -0.255194 -0.150186 0.839467 0.468393 0.267854 -0.427444 -0.708444 0.702901 -0.718451 -0.202247 0.131131 0.215021 -0.521798 0.079069 0.586624 -0.134326 -0.334219 -0.214877 0.021667 0.597021 -0.921398 -0.764863 -0.620079 -0.039800 -0.631297 -0.310489 0.784347 -0.140558 0.870295 -0.356529 0.203957 -1.040044 0.028499 -0.291567 -0.222042 -0.197810 0.027752 0.393015 -0.114920 0.620428 0.799281 -0.260184 -0.273682 -0.572550 -0.612816 0.469384 0.178499 0.192637 0.441417 0.231046 -0.024171 -0.186752 0.316475
288 -0.128748 -0.789666 0.020089 -0.126249 -0.570186 0.433928 0.051936 -0.799107 -0.009098 1.076225 1.012690 -0.243310 -0.168175 0.820696 0.473748 0.240761 -0.430408 -0.655980 0.684922 -0.726787 -0.160545 0.130916 0.205265 -0.499480 0.115642 0.527744 -0.106229 -0.366140 -0.203624 -0.046382 0.600752 -0.926277 -0.770253 -0.640969 -0.033650 -0.633528 -0.332270 0.831421 -0.129281 0.898320 -0.328718 0.206696 -1.048859 0.001884 -0.270451 -0.222500 -0.178499 0.027778 0.386144 -0.149343 0.601024 0.820300 -0.194526 -0.300300 -0.542881 -0.597602 0.424480 0.169218 0.208537 0.457604 0.220194 -0.016171 -0.200944 0.326583
29475 -0.411850 1.045522 -0.753804 0.161737 -0.091240 0.122676 -0.237192 0.581709 -0.288117 -0.621638 -0.277184 0.402398 -0.112423 -0.870961 0.021502 -0.418678 0.208248 0.420628 -0.394736 0.264022 0.296242 -0.371731 -0.346400 0.524679 -0.202664 -1.029619 0.265268 0.639048 -0.206677 -1.119200 -0.619266 0.708872 0.575271 0.396659 0.146657 0.466311 0.179821 -0.290919 -0.130173 -0.267395 0.353032 -0.147201 0.695140 -0.603249 0.410456 0.008046 0.416766 -0.146811 -0.289295 -0.389357 -0.833661 -0.401856 0.656562 -0.238111 0.969417 0.797605 -0.624349 -0.230953 0.387557 0.153856 -0.412119 0.352260 0.169269 -0.734858
521 0.990995 0.070980 0.383890 -0.154475 -0.588535 -0.155485 -0.217592 -0.050647 -0.835398 0.098537 -0.213553 0.685456 0.229732 -0.277382 0.700087 0.591839 -0.577386 0.115199 -0.704402 -0.125389 0.627354 -0.015673 0.297598 -0.147611 0.089358 -0.621872 0.130563 0.247922 0.409610 -0.319140 -0.199490 0.110374 0.047458 -0.610914 0.468554 0.319790 -0.103992 0.438267 -0.092295 1.161079 -0.409391 0.651978 -0.065026 0.207628 -0.557023 -0.465167 -0.758659 0.293202 0.716140 -0.407705 -0.130654 0.046862 0.122833 0.132815 0.141361 -0.816553 -0.506317 0.263003 -0.637975 0.541845 0.254656 0.773686 0.201026 0.391433
6437 -0.055881 0.025972 -0.190648 -0.116221 -1.094874 0.093423 -0.447490 0.120911 -0.752039 0.907381 0.130910 0.503426 0.960424 0.627504 0.570269 0.686749 -1.119569 -0.493046 0.928489 -1.099744 0.191262 0.211111 0.093040 -0.151428 0.569325 0.109969 -0.046012 0.544037 0.717630 -0.289812 0.054165 -0.861678 0.079923 0.641276 -0.272812 -0.693840 -0.315493 0.215919 0.003172 0.398722 0.129913 -0.093534 -0.713758 -0.084706 -0.400828 -0.260946 -0.381773 0.638688 -0.129904 -0.396849 -0.198397 0.570535 -0.195064 -0.639862 -0.063260 -1.230234 -0.813234 0.804141 -0.053823 0.373689 0.074385 0.475340 0.686277 0.031689
6438 -0.387402 -0.365790 0.157511 -0.155881 0.689889 -0.485529 0.338195 0.311633 0.384987 -0.778527 -0.034936 -0.696689 1.041488 -0.187252 0.092059 -0.185810 0.375231 -0.603716 0.642485 -0.481589 -0.428426 0.560239 -0.463368 0.221226 -0.073968 0.659993 0.640441 0.110610 1.215763 0.345097 0.710431 0.048019 0.357828 0.294355 -0.270821 -0.076462 0.579319 -1.464704 0.030341 -0.135077 0.711757 -0.559734 0.075177 0.272382 0.007093 0.516829 -0.500258 -0.355926 -0.045073 0.482251 0.978558 -0.454676 -0.989890 -0.284499 -0.448399 -0.489235 -0.525372 -0.056835 0.152707 0.000912 0.426264 -0.213597 0.110216 -0.044454
5604 0.787881 -0.627385 0.661160 -0.102605 0.927577 -0.875522 0.505526 0.475955 0.457556 -0.918484 -0.867294 -0.711391 0.720901 -0.737317 -0.178785 -0.212424 0.153725 0.560147 -0.340842 0.412105 0.272798 0.374653 0.148768 -0.209765 -0.347424 0.168938 0.254527 -0.219316 0.660644 0.552111 0.275840 0.399443 0.398439 -0.138134 -0.239953 0.229054 0.310995 -0.880515 0.352503 0.041899 -0.070678 0.431907 0.073811 0.917009 0.105193 0.886430 -0.662623 -0.105292 0.263119 1.080700 0.758442 -0.627206 -0.419938 0.055439 -0.118881 -0.442650 0.016683 0.082674 -0.277765 -0.350197 0.458993 -0.209569 0.118478 0.596159
5929 -0.395791 0.926690 -0.947085 0.027288 -1.208633 0.219036 -0.526084 0.390404 -0.388115 -0.038081 0.243973 0.739786 0.501664 -0.258718 0.766846 -0.184977 -0.545531 -0.325714 0.318512 -0.700319 0.494020 0.158740 -0.272180 0.199878 0.414966 -0.944072 0.237406 0.668401 0.768997 -0.990095 -0.410223 0.122423 0.230394 0.752577 -0.203370 -0.019349 -0.209311 -0.184266 -0.224699 0.362038 0.363265 -0.005308 0.191567 -0.110938 0.116837 -0.595671 0.240684 -0.045047 -0.268898 -0.782998 -0.597730 0.367847 0.443673 -0.878313 0.404176 -0.235387 -1.263830 0.332318 0.264486 0.653490 -0.286314 0.203895 0.107526 -0.526410
298 0.508357 -0.172470 -0.042151 0.660212 0.056064 -1.065004 0.191600 0.229366 0.934777 -0.671308 -0.916601 -0.846575 0.437998 -0.058905 -0.641378 -0.431014 0.492884 0.181696 0.124230 0.548469 -0.252176 0.224420 0.410111 -0.076292 -0.135745 0.252705 -0.432053 -0.392462 0.523371 0.766145 0.013786 0.411196 0.088506 0.444775 -0.713565 0.477426 0.249538 -0.374606 0.571979 -0.301652 0.208077 0.431702 0.729483 1.645066 0.381457 0.372902 0.344632 -0.213024 -0.167741 1.147992 0.220366 -0.222851 0.167308 0.135008 -0.419243 -0.245964 -0.179204 0.527571 0.358131 -0.585712 -0.021371 -0.303851 0.287812 0.397671
12076 0.408659 0.316329 0.543624 0.426178 -0.709538 -0.289697 -0.760204 -0.265233 -0.259462 -0.015788 -0.144549 0.265193 -0.067608 0.542430 -0.156767 1.003565 0.320953 -0.314074 -1.036071 -0.408433 -0.033647 -0.262369 0.471713 -0.290434 -0.461304 -0.247259 -0.514589 0.362825 0.211191 0.249656 -0.033178 -0.021822 -0.171367 -0.506193 0.569622 0.754586 -0.173250 0.329799 0.146977 0.772406 -0.276637 0.583330 0.311762 0.975177 -0.404752 -1.015308 0.280722 -0.525618 0.515703 -0.281494 -0.111411 0.720209 0.633807 0.636428 -0.164151 -0.777182 0.246520 0.430764 -0.463891 0.377612 0.153059 0.686709 -0.326770 0.567283
303 -0.846852 0.682014 -0.777065 0.214025 -0.382168 -0.059651 -0.543885 -0.460180 0.077479 -0.301290 0.860012 -0.688709 -1.184197 -0.420575 -0.516347 -0.513971 0.474213 -0.388240 -0.309545 -0.382933 0.069858 -0.267427 0.165918 0.513451 -0.708752 -0.633866 -0.078807 -0.063102 0.172553 -0.058858 -0.302678 0.281252 -0.105273 -0.970522 0.274580 0.572589 -0.316258 0.982233 -0.160387 0.806432 0.546016 0.158575 0.341501 -0.477751 -0.172184 -0.166929 0.571295 -0.540311 0.868078 -0.278498 -0.037764 0.048224 0.868453 0.333412 0.268871 0.689769 -0.025806 -0.437895 0.515817 0.280345 -0.228209 -0.241042 -0.465797 0.251672
30000 -0.590685 -0.071873 -0.519111 0.136125 1.016506 -0.542727 0.412246 0.790332 0.180454 -0.952929 -0.885027 -0.975854 0.952334 -0.600198 -0.515400 -0.597820 1.020593 0.206156 0.118657 0.125000 -0.267233 -0.599473 -0.218333 0.110642 -0.250275 0.067307 0.463323 0.069853 -0.213674 0.046655 0.444312 0.096076 0.416666 -0.190687 -0.673978 0.214920 0.895106 -0.736272 0.457469 -0.775623 0.493259 -0.182068 0.700191 -0.237865 0.469419 0.780876 0.396526 0.272815 -0.279521 0.610001 0.392237 -0.889224 -0.504137 -0.053329 0.511908 0.094252 0.103751 -0.303259 0.397244 -0.209375 -0.016385 0.220423 0.561550 -0.190224
5429 0.102205 -0.033620 -0.006458 0.293688 -0.037440 0.274240 -0.501995 -0.402392 0.296237 -0.249542 -0.290731 -0.626320 -0.493154 0.246015 0.091065 0.270404 0.974431 -0.743005 -0.422212 0.440709 -0.274878 -0.106374 0.467854 -0.266769 -1.085428 0.118009 -0.540450 0.523875 -0.584375 -0.272876 -0.526062 0.351285 -0.730713 -0.469552 0.614997 0.604617 0.102947 -0.043091 -0.990728 -0.173941 -0.704815 0.011690 0.432667 0.324867 -0.044840 -0.921316 0.421846 0.009809 0.468393 0.111053 0.082830 0.597993 1.224216 1.200086 -0.246360 0.749365 0.768246 0.172256 0.018962 0.499083 -0.208192 0.866250 -0.507827 -0.232291
9728 -0.877020 0.617724 -0.729537 0.205409 -0.353190 -0.036582 -0.523595 -0.436577 0.070635 -0.319399 0.884888 -0.694741 -1.164324 -0.381720 -0.516209 -0.501672 0.505706 -0.387454 -0.339928 -0.364415 0.051301 -0.303632 0.176266 0.454420 -0.742633 -0.609469 -0.072480 -0.109684 0.124949 -0.054714 -0.236613 0.269009 -0.140336 -1.021631 0.268919 0.530562 -0.261967 0.962809 -0.135088 0.827025 0.462059 0.195651 0.338906 -0.437674 -0.093413 -0.188440 0.610681 -0.593100 0.870265 -0.247514 0.011205 0.051467 0.849399 0.309216 0.217910 0.685600 0.079936 -0.472025 0.495656 0.309891 -0.255210 -0.234525 -0.526417 0.264080
4341 0.215738 0.366635 -0.328596 -0.003631 0.369751 -0.509449 -0.004403 0.744286 -0.192297 -1.113286 -0.689816 -0.208583 -0.219007 -1.384535 0.071919 -0.619806 -0.147337 0.595549 -0.518364 0.489559 0.765883 -0.347423 0.277063 0.351922 -0.881848 -0.906402 0.325504 0.460414 -0.015071 -0.562270 -0.838903 0.993113 0.559275 -0.341923 0.107481 0.401861 0.458973 -0.068898 -0.024235 0.270363 -0.217974 0.521328 0.592068 -0.039034 0.143290 0.564667 0.123780 0.117494 0.471598 0.434750 -0.112792 -0.883723 0.498622 -0.254299 0.818485 0.779457 -0.380924 -0.327201 0.226680 -0.020141 -0.104226 0.102622 0.453934 -0.195020
1863 -0.175548 0.470724 0.218915 -0.052289 1.018581 -0.177670 -0.109695 0.362885 -0.050250 -1.177912 0.676869 -0.134422 0.571917 -1.215757 -0.034850 -0.768951 0.072698 -0.700997 0.285099 0.324319 0.300492 -0.229898 -0.313922 0.232764 -0.252090 0.326473 1.026497 -0.276735 0.664995 0.108646 0.470048 -0.250760 0.052861 -0.137390 -0.037231 0.710773 0.210556 -0.837641 0.024861 -0.215922 -0.134172 -0.849893 0.512081 -0.471206 -0.261474 -0.124762 -0.250972 -0.248151 1.012753 -0.137914 0.385304 -0.452611 -1.019478 -0.199590 0.674611 -0.331590 -0.499100 -0.235297 -0.361886 0.410837 -0.806684 -0.085792 0.273420 -0.483705
1864 -0.493060 1.199319 -0.166468 0.268883 -0.729721 -0.026841 -0.818661 0.323199 -0.711802 -0.060325 -0.121773 0.938991 0.494462 0.232352 -0.040441 0.884754 0.346696 -0.105539 -0.545786 -0.787337 -0.147264 -0.447689 -0.312288 0.326632 0.194900 -0.482200 -0.046139 1.017399 0.515250 -0.326580 -0.041854 -0.032428 0.442312 0.517058 0.329250 0.626937 -0.040056 -0.278604 0.272531 0.036061 0.771118 -0.088114 0.672116 0.050059 -0.431465 -0.723762 0.450425 -0.403486 -0.269504 -0.903388 -0.742853 0.497040 0.216733 -0.010083 0.587988 -0.735868 -0.691680 0.369768 -0.144442 0.323638 -0.031269 0.702554 0.132768 -0.280465
16204 -0.941720 0.884248 -1.014266 0.110541 -0.464914 0.469188 -0.730321 0.329782 0.046370 -0.062589 0.318978 0.026725 -0.218009 -0.079801 0.253642 -0.534793 -0.172715 -0.971063 0.923323 -0.164682 -0.049197 -0.273151 -0.093273 0.193237 -0.297768 -0.151835 -0.083613 0.857686 -0.212187 -0.679182 -0.734198 -0.151832 -0.217631 0.917573 -0.056855 0.040894 -0.049439 -0.153185 -0.776117 -0.752719 -0.083608 -0.589256 0.230840 -0.644590 0.070042 -0.577991 0.908414 0.133992 -0.284976 -0.389449 -0.637451 0.505889 0.585816 -0.404863 0.587765 0.969057 -0.483987 0.274057 0.747737 0.405613 -0.795926 0.031247 0.156451 -1.091438
30034 -0.658250 -0.086691 -0.499953 0.097191 1.013932 -0.472182 0.416502 0.758112 0.204374 -0.888116 -0.799997 -0.962075 0.887855 -0.526166 -0.519075 -0.584595 1.030933 0.156410 0.120835 0.092277 -0.336490 -0.606127 -0.246273 0.087850 -0.269255 0.086627 0.450864 0.052307 -0.281802 0.056680 0.454700 0.065057 0.360361 -0.197248 -0.671426 0.165584 0.902761 -0.738190 0.417262 -0.784675 0.469161 -0.192949 0.665747 -0.261142 0.518718 0.739352 0.447621 0.213444 -0.323579 0.560781 0.394223 -0.833701 -0.493102 -0.074159 0.455605 0.165106 0.173588 -0.329817 0.438896 -0.200485 -0.038497 0.186119 0.477388 -0.215470
16728 -0.898497 0.191445 0.046253 0.316017 1.023311 -0.330278 -0.372842 0.708506 0.214663 -0.667331 -0.673313 -0.699238 -0.010957 -0.003928 -0.766519 0.105163 0.505991 -0.582002 0.431497 -0.166627 -0.636242 -0.764947 0.005199 0.422560 -1.186899 0.442655 -0.240183 1.019891 -0.582050 0.625384 -0.448205 0.425367 0.130519 0.189357 0.000229 0.162836 0.841358 -0.441228 0.126943 -0.999828 0.125586 -0.261492 0.760137 -0.003222 -0.043069 0.174424 1.249074 -0.053729 -0.453455 0.547912 0.194925 -0.599898 -0.276778 -0.003457 0.089068 0.807348 0.535596 -0.310749 0.478435 -0.351346 -0.157205 -0.223483 0.497649 -0.459816
1881 -0.473823 1.169383 -0.140449 0.215351 -0.692843 0.010272 -0.786172 0.339403 -0.781338 -0.059004 -0.141078 0.978481 0.560008 0.208006 0.051267 0.916510 0.348927 -0.072868 -0.558300 -0.765323 -0.134907 -0.475194 -0.329663 0.308536 0.183996 -0.496718 0.003933 1.041674 0.459739 -0.404243 -0.006603 -0.003072 0.448193 0.472818 0.353448 0.585529 0.012613 -0.336275 0.218940 0.063285 0.736430 -0.090100 0.682653 -0.032092 -0.439329 -0.714742 0.382895 -0.374904 -0.274967 -0.916966 -0.719747 0.465306 0.174094 -0.036284 0.604644 -0.706609 -0.680178 0.330127 -0.183350 0.346323 -0.015365 0.759070 0.140611 -0.321457
3931 0.438554 0.651997 0.195756 0.137758 -0.330592 -0.477447 -0.067946 0.525983 -0.845286 -0.510835 -0.498979 0.886859 0.477175 -0.699946 0.130424 0.493794 0.083608 1.179468 -1.291831 0.109707 0.588670 -0.262472 -0.191402 0.345370 0.105963 -1.101871 0.257760 0.196442 0.452791 -0.520669 0.061505 0.713871 0.834936 -0.285809 0.352646 0.557967 0.027744 -0.004284 0.651541 0.750500 0.434825 0.577330 0.647312 0.345084 -0.118261 0.085183 -0.341764 -0.286632 0.188137 -0.215679 -0.371747 -0.473961 0.210152 -0.216333 0.713087 -0.576095 -0.562321 -0.140446 -0.472988 0.043154 0.188152 0.565668 0.204767 0.351675
7568 0.791405 0.332985 0.625932 -0.003662 0.114368 -0.575194 -0.346339 0.018823 0.793472 0.172426 -0.434124 0.295899 -0.590108 0.253599 -0.927466 0.039006 -0.847392 0.411885 0.221708 0.206319 -0.096468 -0.017242 0.504590 -0.193826 0.028201 0.432433 -0.821004 -0.084429 -0.081041 1.398157 -0.664298 -0.069278 0.181989 1.165725 -0.187733 0.355639 -0.509544 0.224184 0.645143 -0.707797 -0.230997 0.087238 0.241385 1.215229 -0.446283 -0.111703 0.643197 -0.189289 -0.303304 0.555907 -0.479874 0.168158 -0.162118 -0.078187 -0.213183 0.132569 0.037091 0.425139 -0.195978 -0.984712 -0.049098 -1.163659 0.196878 0.122631
5987 1.035006 0.019186 0.182111 0.288810 0.049440 -0.312533 0.241117 -0.164810 0.365886 -0.257977 -0.913666 0.029784 -0.986119 -0.224907 -0.247311 -0.010958 0.182623 0.992619 -0.785561 1.060365 0.165115 0.259936 0.488031 0.446022 -0.472346 -0.242802 -0.526783 -0.085688 -0.484480 -0.013996 -0.982769 1.246716 0.306862 -0.019502 0.568650 0.311866 -0.130113 0.257305 0.011456 0.090510 -0.143811 0.412866 0.511168 0.593748 0.096154 0.246158 -0.084176 -0.074925 0.019965 0.639822 -0.295420 -0.551686 0.970721 0.721272 -0.343805 0.946894 0.124165 -0.233052 -0.149391 -0.536642 0.308587 0.001557 0.032570 0.282691
358 0.379974 0.408773 -0.042964 -0.069539 -0.533188 -0.292708 -0.110145 0.582939 0.236006 -0.558854 0.221125 0.299830 0.095646 -0.987264 0.401183 -0.853421 -0.821419 0.375349 -0.283833 0.984642 0.983241 0.407939 0.296791 -0.427905 0.022183 -1.024578 0.051598 -0.598222 0.543250 -0.324079 -0.630190 0.270019 0.013485 0.265919 -0.589632 0.114504 -0.425250 0.092220 -0.239525 0.211194 -0.776389 0.604780 -0.031059 0.614608 0.611582 0.226969 -0.242151 -0.001708 0.265062 0.074913 -0.586269 0.242807 0.720649 -0.640335 0.600697 0.145479 -0.476660 0.493259 0.096601 0.072777 -0.840311 -0.306541 -0.485382 0.047670
877 -0.946648 0.425053 -0.686755 0.583847 -0.660282 -0.275284 -0.821463 -0.185344 -0.246875 0.151983 0.007715 -0.664860 -0.171723 0.410964 -0.775832 0.473657 0.804560 -0.120749 -0.341484 -1.229501 -0.259362 -0.304292 0.072825 0.508676 -0.508841 -0.363119 -0.300395 0.633465 0.449211 -0.041624 0.186270 0.079488 0.346134 -0.658199 0.367687 0.349113 -0.189094 0.703089 0.393361 0.578155 1.156944 0.192587 0.332690 0.041281 -0.334574 -0.224165 0.711571 -0.292051 0.244506 -0.136491 0.175761 0.210277 0.720761 0.544681 0.099268 -0.347004 -0.053447 0.071383 0.266879 0.214748 0.542278 0.373594 -0.001482 0.677924
4976 0.999222 0.563393 0.583446 0.531503 0.119808 -1.113225 -0.298634 0.057142 0.328746 -0.994541 -0.676695 0.133652 -0.052853 -0.546282 -0.252883 0.022871 -0.040918 0.364019 -0.806179 0.795225 0.421486 0.233942 0.509762 0.353176 -0.441067 -0.055081 -0.207180 0.039430 0.581869 0.591690 -0.490243 0.783455 0.447403 0.285523 0.198706 1.074343 -0.272823 -0.203739 0.585203 0.400547 -0.037994 0.376362 0.980151 1.489822 -0.537556 0.017363 -0.155760 -0.539102 0.666365 0.692103 -0.008728 -0.479448 0.166903 0.358518 0.126583 -0.302101 -0.362618 0.148922 -0.457696 -0.491346 0.166614 -0.062644 0.142067 0.406995
5877 -0.033799 -0.996834 0.257103 -0.037120 0.888363 -0.411146 0.771747 0.054227 0.499363 -0.128617 -0.248615 -0.962397 0.480418 0.111457 -0.602739 -0.312100 0.531452 0.304310 0.177932 0.193808 -0.513256 -0.073571 0.076033 -0.334924 0.127546 0.626833 0.072061 -0.926543 -0.044423 1.044542 0.916610 -0.272706 -0.055260 -0.553247 -0.763795 -0.283008 0.405731 -0.005849 0.657354 -0.306773 0.152403 0.230061 -0.092244 0.463904 0.268900 0.883493 -0.099650 0.172590 -0.148265 0.864144 0.936867 -0.511258 -0.855256 0.058327 -0.386064 -0.277817 0.604542 -0.312329 0.130997 -0.620546 0.381759 -0.486930 0.009468 0.639914
14228 0.460236 0.963362 -0.238483 0.203982 -0.088813 -0.535330 -0.793449 0.427524 0.176728 -0.669627 -1.108489 0.044819 -0.019408 -0.432146 -0.106404 0.086824 -0.147388 -0.323711 -0.164368 -0.218892 0.271410 -0.277151 0.507492 0.057480 -0.675888 -0.303612 -0.198382 1.348141 0.125567 -0.153628 -1.162822 0.319439 0.377166 0.898366 0.183332 1.016373 0.111433 -0.563780 -0.194424 -0.435230 -0.079951 0.031915 0.756597 0.512306 -0.440081 -0.632288 0.593896 0.061268 0.124149 0.023138 -0.644739 0.194266 0.653408 0.279969 0.556682 0.179438 -0.740045 0.595584 -0.072262 0.137061 0.085689 0.416709 0.565293 -0.599553
15226 0.852865 0.349863 0.550114 0.023622 0.054952 -0.588827 -0.352057 0.044938 0.770547 0.155301 -0.480583 0.288010 -0.609088 0.225064 -0.876570 -0.004982 -0.878171 0.395013 0.245692 0.248825 -0.048839 0.007913 0.542564 -0.151009 0.008623 0.393699 -0.820289 -0.038655 -0.076191 1.318324 -0.739279 -0.024654 0.184544 1.170915 -0.136453 0.381650 -0.498473 0.269991 0.585765 -0.666951 -0.264914 0.117158 0.263596 1.214040 -0.454342 -0.133101 0.616795 -0.127230 -0.261384 0.571241 -0.498013 0.161062 -0.098759 -0.060153 -0.200782 0.184774 -0.045514 0.452571 -0.176166 -0.949899 -0.063632 -1.121783 0.256871 0.097877
17276 0.573773 -0.367110 -0.765138 0.195506 -0.700223 -0.398099 0.599878 0.105835 -0.132678 0.297495 -0.017662 0.200376 0.485866 -0.358233 0.489390 -0.731124 -0.920385 0.807335 0.697500 0.121820 0.676093 0.509742 -0.036891 0.467492 1.003544 -0.285636 0.323309 -0.360670 0.696098 -0.462866 0.208448 0.015432 0.632048 0.443713 -0.379924 -0.642733 -0.304382 0.514880 0.667555 0.513475 0.605452 0.233494 -0.376799 0.136192 -0.047304 1.137285 -0.678022 0.564151 -0.165541 0.462180 0.052344 -0.525790 -0.391506 -0.797639 0.235615 -0.550346 -1.207484 0.113121 0.223665 -0.333102 0.284700 -0.368619 1.054101 0.318411
